%YAML:1.0
---
opencv_ml_svm:
   format: 3
   svmType: C_SVC
   kernel:
      type: LINEAR
   C: 2.6699999999999999e+00
   term_criteria: { epsilon:1.1920928955078125e-07, iterations:1000 }
   var_count: 1024
   class_count: 2
   class_labels: !!opencv-matrix
      rows: 2
      cols: 1
      dt: i
      data: [ -1, 1 ]
   sv_total: 1
   support_vectors:
      - [ 2.66285406e-06, -2.79395545e-06, -4.14480110e-06,
          -6.01663123e-06, -7.56212921e-06, -4.24103519e-06,
          -2.65675408e-06, -2.89461781e-07, -1.40656664e-06,
          7.78978233e-07, 1.50009714e-06, 2.12927034e-07, 2.72407965e-06,
          -1.03912676e-07, 2.68896292e-06, 2.65959466e-06,
          9.02413262e-07, 5.63054584e-07, 8.65248694e-07, 6.78266019e-07,
          5.73107116e-07, 5.20784681e-07, -2.22202488e-08,
          1.54123461e-06, -4.17137812e-07, 1.26940495e-06,
          4.22813912e-07, -6.46416424e-07, -2.48207783e-07,
          3.33055965e-07, -1.58418663e-06, 1.57867350e-06,
          -5.01722184e-07, -8.51908283e-07, -4.96326834e-07,
          -5.97074859e-07, 2.45227466e-06, 1.21097469e-06,
          7.54525388e-07, -3.48676608e-08, 8.73206204e-07,
          -6.08943196e-07, -9.82397523e-07, -1.22346549e-07,
          7.00118676e-07, -6.79857806e-08, -7.46744774e-07,
          7.70161193e-07, 1.15991224e-06, 4.12281139e-07, 3.08524864e-06,
          8.26654514e-07, 1.70516580e-06, 2.48994706e-06, 1.63568347e-06,
          2.84389614e-08, 3.65272001e-07, 2.77294112e-06, 2.88164914e-09,
          1.45448553e-06, 1.46673642e-07, 2.26802149e-06, 5.13617920e-07,
          2.01031199e-07, 2.74456283e-06, -3.92902933e-07,
          -1.22011079e-06, -2.30807501e-07, 2.37700624e-06,
          3.25003839e-07, 9.08233176e-07, 7.95022515e-07, 5.94944765e-07,
          -4.94061396e-07, 4.90593834e-07, -1.37902407e-06,
          6.34067362e-07, -2.43677448e-07, 1.23133577e-06,
          5.46017361e-07, -1.18889989e-06, -6.69362691e-07,
          2.34312552e-06, -5.25949133e-07, -1.67651388e-06,
          -7.34625928e-07, -5.66914707e-07, -1.61591174e-06,
          -6.66970664e-07, -1.22290976e-06, 9.17847160e-07,
          -8.56133511e-07, -8.81763469e-07, -2.69449259e-07,
          -1.72698833e-06, -1.34997561e-06, 7.97898565e-07,
          -3.20279128e-06, -2.04168782e-06, -4.26207134e-06,
          -3.30568560e-06, -2.11299925e-06, -3.29546288e-06,
          -2.23131951e-06, -3.48936646e-06, -2.36486494e-06,
          -3.68830524e-06, -1.49873074e-06, -1.64641426e-06,
          -2.06100935e-06, 5.62827616e-08, -5.72481383e-07,
          -6.94246353e-07, -2.66628444e-06, -8.41711312e-07,
          -1.11707925e-06, 8.51701998e-07, -1.74770184e-06,
          -1.21936182e-06, -2.89308264e-06, -7.91760783e-07,
          -1.60911861e-06, -1.73824469e-06, -7.95607377e-07,
          -4.41488010e-06, -5.66893220e-07, 1.89702473e-06,
          -1.04052640e-06, 3.94220297e-06, -5.29761394e-07,
          -1.33878768e-06, -2.06538198e-06, -2.83105942e-06,
          -3.22715664e-06, -2.47812318e-06, -1.38105042e-06,
          -3.64754624e-06, -2.26886755e-06, -1.21788628e-06,
          -1.35942855e-06, -5.87347415e-07, -4.30747463e-07,
          3.13117965e-07, 1.09789437e-06, 9.02256716e-07, 6.69514634e-07,
          2.77520667e-06, 1.31115542e-07, 2.23087295e-06, 1.80508323e-06,
          9.91835122e-07, 3.99133370e-07, 1.56930344e-06, 1.48201718e-06,
          3.43392776e-06, 1.36980805e-06, 2.49273057e-06, 1.49457276e-06,
          1.14010402e-06, 2.79850246e-06, 8.84474332e-07, 5.39566201e-07,
          2.81766859e-08, 8.88474062e-07, 4.82794633e-07, 1.28392855e-06,
          -9.59776003e-07, -7.29278440e-07, -3.71438830e-07,
          -9.76839715e-07, -1.92519701e-06, -1.53208725e-06,
          -5.26593134e-08, -6.77695652e-07, 8.85609779e-07,
          -2.65565836e-06, -5.34007711e-07, -1.49569757e-06,
          -2.22986341e-06, 6.75559136e-07, -1.03143429e-06,
          -2.10919104e-08, -1.12268560e-06, -1.62742253e-06,
          -4.16157604e-07, 2.07646366e-07, 1.09488155e-06,
          2.77573326e-06, 1.76025026e-06, 9.63555635e-07, 2.00080513e-06,
          6.42579494e-07, 2.31807530e-06, -1.13903798e-06,
          5.41740860e-07, -5.58810314e-07, 1.93057554e-06,
          1.32354126e-06, 2.30711771e-06, 1.86773241e-06, 1.61992511e-06,
          -1.92901734e-06, 2.03034432e-07, 7.00029261e-08,
          1.93003848e-06, -1.30524074e-06, 1.48362324e-06,
          1.10386145e-06, 1.24468886e-06, -2.32849084e-06,
          1.21424492e-07, -1.57858452e-07, -3.84024162e-07,
          3.66311411e-07, -1.23356574e-06, -1.12809232e-07,
          -8.90815954e-07, -1.47580167e-07, -1.23877351e-06,
          4.39020738e-07, -2.24581015e-07, 1.28859732e-08,
          -6.96079042e-07, -1.11735221e-06, 1.49630989e-06,
          -1.49399636e-06, -2.65222980e-07, -2.12564331e-07,
          -1.42635702e-06, 4.69981075e-07, -1.74328125e-06,
          -9.66181005e-07, 9.44299757e-07, 5.25266302e-08,
          -7.48646130e-07, -2.77341968e-07, 9.05119393e-08,
          9.49607170e-07, 7.04260856e-07, -1.14139436e-06,
          -3.06592398e-07, 1.60956415e-06, 2.31025012e-07,
          -1.50646130e-07, -2.58594241e-06, -8.89431021e-07,
          6.97623079e-07, -8.74483192e-07, -1.70736519e-06,
          -2.39496694e-06, -1.70873625e-06, -3.97990425e-06,
          -3.77706942e-06, -4.68977260e-06, -2.05126003e-06,
          -3.68427391e-06, 5.77033552e-06, 5.71529517e-06,
          3.56444593e-06, 3.33747289e-06, 4.69892893e-06, 2.54073552e-06,
          3.06000243e-06, 3.11610552e-06, 1.76406877e-06, 2.19191043e-06,
          6.32676802e-07, -1.60536430e-07, -3.93595201e-06,
          -1.57323893e-06, -2.31369154e-06, 5.64529557e-07,
          -2.42847386e-06, -1.69417422e-06, -1.27283045e-06,
          -1.49348898e-06, 1.02337390e-06, 3.11454369e-06,
          7.83670373e-07, 4.15962461e-07, 1.81271741e-06,
          -1.47351386e-06, 1.56625504e-06, 5.61066543e-07,
          1.18699904e-06, 3.33479960e-07, 3.29139084e-06, 2.60607567e-06,
          3.46847128e-06, 2.49476420e-06, 1.47857247e-06, 2.09157406e-06,
          1.13212650e-06, -1.08889083e-07, 1.57580234e-06,
          7.13346424e-07, 8.40440919e-07, 1.54055590e-06,
          -7.61143838e-07, 1.45390260e-07, -1.87261904e-07,
          4.46603934e-07, -1.88502111e-06, 7.25382449e-07,
          -2.62716185e-06, -2.73124056e-06, -1.57226691e-06,
          -2.17238517e-06, -2.22863287e-06, -1.87064165e-06,
          -1.15491309e-06, -2.61767741e-06, -3.79864832e-06,
          -5.52703750e-06, -2.74375816e-06, -3.85909379e-06,
          -4.90724688e-06, -3.29895238e-06, -2.98351915e-06,
          -1.80031145e-06, 2.93681728e-06, -3.54777444e-06,
          -1.57880777e-06, -3.57773843e-06, -8.57773784e-07,
          1.36083244e-07, 9.17807824e-07, -1.17957381e-06,
          -1.40721306e-06, -1.69655186e-06, 2.32144998e-06,
          3.99772460e-07, 2.94137908e-06, 4.34890808e-06, 2.13187468e-06,
          2.25198414e-06, 5.75351169e-06, 2.92805822e-07, 2.57462057e-06,
          -4.55105010e-07, -9.55461701e-07, -1.42028705e-06,
          -4.92491665e-07, 3.63606006e-07, -1.00270734e-06,
          -2.52527184e-06, -5.13334612e-07, -1.68253973e-06,
          -4.23371915e-07, -8.50055585e-07, -7.29975866e-08,
          3.75743525e-08, 3.31937622e-06, -1.62945412e-07,
          3.11852091e-06, 3.71045815e-07, 9.14347652e-07, 3.46269985e-06,
          2.84437237e-06, 2.83409076e-06, 4.96064104e-06, 3.76749654e-06,
          4.54464634e-06, 2.65266249e-06, 2.52676796e-06, 5.44637578e-06,
          4.81440429e-06, 2.68717508e-06, 2.32162097e-06, 2.22676158e-06,
          1.30073067e-06, 1.90462117e-06, -2.28054091e-06,
          -1.31623472e-06, -1.01408432e-07, 6.51843735e-08,
          -1.73573909e-07, -7.23752350e-07, -2.20919924e-06,
          -3.20517574e-06, -5.75952299e-07, -9.39668610e-07,
          1.54999520e-06, 1.48628908e-06, 6.86357544e-06, 2.30459409e-06,
          2.03178774e-06, -7.19929858e-07, -2.69201291e-06,
          -3.15770740e-06, -3.95252664e-06, -3.12926863e-06,
          -3.80811116e-06, 3.74530828e-07, -1.06426592e-06,
          5.36367963e-07, -1.01923001e-06, -2.68499298e-06,
          -3.19392620e-06, 1.22773088e-06, -2.19480444e-06,
          2.89253376e-06, -2.73316573e-07, 1.32315347e-06,
          -2.87524045e-07, -1.49941670e-07, 4.38779892e-07,
          7.63996923e-07, -8.97422922e-07, -2.87839498e-07,
          -9.45800082e-07, -2.10622161e-07, 4.36910398e-07,
          4.38564427e-07, 4.66193200e-07, -1.40069358e-06,
          1.88070385e-06, 1.49714288e-06, -1.30635826e-07,
          -5.25013775e-07, 2.10878625e-06, 5.32611750e-07,
          2.06493337e-06, 1.30562819e-06, 1.81112568e-07, 5.89541173e-07,
          1.62927893e-06, 4.29976922e-07, 9.52584230e-07, 1.31531101e-06,
          2.50046554e-07, 2.40169243e-07, -2.38999769e-06,
          1.01660828e-06, 1.18968887e-06, -1.03887805e-06,
          2.50940820e-06, 2.14745683e-06, 3.72436648e-06,
          -6.33462633e-08, 1.19701795e-07, -2.18428795e-06,
          8.81344249e-07, 4.08042723e-07, -2.13519172e-07,
          5.52653034e-07, 3.87690534e-06, 4.57825990e-06, 1.01927126e-05,
          1.54468967e-06, 2.41970633e-06, 3.91562889e-06,
          -2.90936509e-06, 2.84141083e-06, 1.43819398e-06,
          2.01966850e-06, 3.91820186e-06, 5.02577268e-06, 3.20024969e-06,
          1.73858427e-06, 3.44907767e-06, 2.08152210e-06, 4.06893423e-06,
          3.81400423e-06, 1.99270653e-06, 3.62664355e-06,
          -2.04166199e-07, -4.36722942e-08, -1.05489983e-06,
          -6.85076202e-07, -1.58109299e-06, -1.09050336e-06,
          -2.10885446e-06, -3.46223970e-07, 8.68444999e-07,
          -1.05696631e-06, -5.72945851e-07, -1.01911030e-06,
          -1.27722444e-06, 3.49506195e-07, 3.61245270e-06,
          -8.61420347e-07, -1.13136059e-06, -8.46688692e-07,
          -6.92685873e-08, 1.66281620e-06, 1.51695269e-06,
          1.31872483e-07, 1.91143840e-06, 1.30855597e-06, 1.02885292e-06,
          3.06733045e-06, 9.14728219e-07, 7.60140210e-07, 1.01888008e-06,
          7.89646663e-07, 3.88156832e-06, 1.91905474e-06, 3.77483684e-06,
          4.64001062e-07, 1.22288145e-06, 3.48399840e-06, 3.05018466e-06,
          1.30718695e-06, -1.79101196e-08, 2.45141950e-06,
          4.48415949e-06, -2.29086709e-07, 2.90507614e-06,
          3.76011167e-06, 3.33046273e-06, 4.72873626e-06,
          -6.54317455e-06, -4.04210186e-06, -5.92898186e-06,
          -4.66007759e-06, -4.40554231e-06, -3.28427996e-06,
          -2.26097109e-06, -2.41443331e-06, -1.08951861e-06,
          -1.33741912e-06, -1.22139477e-06, -4.58318084e-07,
          -5.37564745e-07, -1.57086362e-08, -8.83969790e-07,
          -1.35313758e-06, -1.00163156e-07, 9.41467761e-07,
          7.26686437e-07, 1.15814123e-06, -1.36571799e-07,
          1.19397725e-06, 1.20339064e-06, 3.31937287e-07,
          -2.26098138e-07, 6.51029040e-07, 5.69823101e-07,
          -5.66235826e-07, -1.14424518e-06, -5.01243562e-07,
          -3.29499585e-07, -1.11354075e-06, 7.34302006e-08,
          -1.14804595e-06, 4.77065498e-08, 2.99571838e-07,
          -5.06544893e-07, -1.32751609e-07, 2.21804193e-08,
          4.23949615e-07, 9.11740131e-07, 4.04154832e-07,
          -9.14991176e-08, 1.14827321e-06, 6.37940218e-07,
          -3.43601755e-07, 1.07612311e-06, 7.66261152e-08,
          4.08360194e-07, 6.95321489e-07, 2.95925474e-07, 2.22002647e-08,
          -4.63364557e-07, -3.64637515e-07, 9.48366903e-07,
          -3.67331729e-08, 1.00895886e-06, 1.26328109e-06,
          1.22844176e-06, 4.53503247e-07, -3.40725791e-07,
          -1.28829004e-06, 1.39244776e-06, 7.15977478e-07,
          -3.61603429e-06, -1.98763064e-06, -5.07929428e-07,
          -2.11161500e-06, -3.75116701e-06, -2.62286403e-06,
          -4.46945569e-06, -9.66827770e-07, -8.15941917e-07,
          1.00816102e-07, -3.48822169e-07, -3.74155775e-07,
          7.58141312e-07, 1.06308494e-06, 1.68424879e-06, 1.31486900e-06,
          1.86603461e-06, 1.87774481e-06, 1.06322057e-06, 4.26022666e-07,
          1.09468424e-07, 3.66215488e-07, 2.06270397e-06, 6.87657803e-07,
          1.91235770e-07, 3.13704788e-07, 3.75921701e-07,
          -2.57996874e-07, -1.72403958e-07, -7.15004376e-07,
          3.16408403e-07, 2.54265046e-07, -5.79586981e-07,
          4.97590918e-07, -7.44794136e-07, 5.04807133e-07,
          4.31128342e-07, 9.14791940e-07, 1.66056020e-06, 1.46379784e-06,
          2.37950553e-06, 1.99119654e-06, 1.07126505e-06, 1.93983260e-06,
          3.30261599e-07, 6.64846823e-07, 4.43297694e-07, 1.02694821e-06,
          2.66403981e-06, -4.03417850e-08, 6.00941974e-07,
          3.33854814e-07, 1.53625217e-06, 4.86689146e-07, 6.11446580e-07,
          3.62864427e-07, 1.05078425e-06, 1.43936234e-06,
          -5.77357646e-08, 3.24461894e-07, 1.20640880e-06,
          1.12218595e-06, 6.14579449e-07, 1.83412249e-06, 3.98912562e-06,
          8.12124711e-07, 9.55396445e-07, 8.25509687e-07,
          -2.00587647e-06, -1.33701440e-06, -3.20710427e-07,
          -7.53400570e-07, -7.62339596e-07, -1.24959428e-07,
          -7.43367707e-07, -9.86406576e-07, -1.55878183e-06,
          -9.50838114e-07, -1.76581648e-06, 3.58148014e-07,
          -1.16242109e-06, -1.09949337e-06, -1.12482724e-06,
          -3.17801437e-07, -5.05755509e-07, 1.11733175e-06,
          -5.45056537e-07, 4.07125157e-07, -3.44249917e-09,
          -2.57942048e-07, -4.34292218e-07, 1.54279974e-07,
          -4.41717773e-08, -1.51789300e-06, 1.15411986e-07,
          -3.19978653e-07, 7.03486648e-07, -6.50488445e-08,
          1.99015034e-07, -2.69618312e-07, 7.96609982e-07,
          6.66729989e-07, 2.37479162e-06, 1.52904033e-06, 5.40413566e-07,
          2.01403691e-06, -3.49986493e-07, 6.49666617e-07,
          1.77642642e-06, 6.65792356e-07, 2.48759818e-07, 1.18869718e-06,
          1.02764872e-07, -3.50010026e-07, -8.85494160e-07,
          -1.26194448e-06, -1.12610928e-06, -3.20945730e-07,
          -5.31548210e-07, -6.88066223e-07, -1.20001266e-06,
          -1.04077230e-06, -1.44562784e-06, -1.56960903e-06,
          -5.65827804e-07, -4.52062295e-07, -4.70116674e-07,
          -4.80813526e-07, -2.71758108e-06, -1.50642779e-06,
          -8.83417442e-07, -1.26697682e-06, -8.53015706e-07,
          -1.17651268e-06, 2.14152777e-07, -2.79484198e-07,
          4.88246144e-07, 5.42202542e-07, 6.55239830e-07, 1.39718509e-06,
          4.49342423e-07, -4.46007789e-07, -1.98990726e-08,
          3.63048656e-07, -3.05010758e-07, -3.45394170e-07,
          -1.65492139e-07, -8.17552404e-07, -7.21740207e-07,
          -7.27410736e-07, -9.29733574e-07, -9.18459307e-07,
          -3.95122015e-07, -7.35047649e-07, 6.47977743e-08,
          -1.26375096e-06, 3.38734822e-07, -1.00533031e-08,
          3.27291403e-08, 9.39173333e-07, 8.19496677e-07, 7.16677050e-07,
          4.44002296e-07, 9.87891781e-07, 1.64930179e-06,
          -4.25353335e-07, 4.30563631e-07, 5.87423088e-08,
          -3.52084264e-08, -3.43318959e-07, 6.64103595e-07,
          -2.20749897e-07, -1.51499546e-06, 6.26793266e-08,
          -6.64128095e-07, 1.39147812e-06, 2.11073285e-07,
          7.46187823e-07, 3.72637118e-07, 1.07431583e-06,
          -8.48829984e-07, 6.80407908e-08, 9.33087563e-07,
          -3.57621097e-08, -2.47667327e-08, 2.39869308e-07,
          -1.51848758e-06, -2.49028972e-06, -3.03728302e-06,
          -3.92588800e-06, -2.39374299e-06, -2.39768269e-06,
          -2.95750988e-06, -2.25170106e-06, 3.99714651e-07,
          1.41407088e-06, 2.79331130e-06, -3.00375369e-08,
          5.17675460e-07, 9.57033990e-07, 1.21910503e-07,
          -1.75438799e-07, 2.52846871e-06, -5.32171782e-08,
          2.18373521e-06, -1.39631550e-06, -9.32708417e-07,
          2.43282693e-06, -2.54035228e-07, 8.31955305e-08,
          -1.01775856e-06, 1.94315319e-07, 8.63619221e-07,
          1.28624185e-06, -3.44798337e-07, -1.33215110e-06,
          1.51151085e-06, 1.04364949e-06, -4.80460244e-07,
          3.93972215e-07, 1.56458242e-07, -5.80438780e-07,
          -2.93053233e-07, -4.62055914e-06, -1.90693484e-07,
          -5.94686469e-07, 2.23063068e-07, -7.29715055e-07,
          -1.96387350e-06, -1.57109685e-06, -1.71885438e-06,
          -1.06081825e-06, -1.40420582e-06, -1.83954580e-06,
          -9.15217811e-07, -9.51867264e-07, 2.44253698e-07,
          -1.79532412e-06, 5.73667819e-07, -9.61576120e-07,
          -6.11120754e-07, -1.55935743e-06, -3.26141731e-06,
          -1.08386644e-06, 8.11226926e-08, 3.65820995e-07,
          -2.09764335e-06, -2.15761838e-06, -7.03611818e-07,
          7.21941035e-07, 2.43698059e-06, -1.80061033e-06,
          -1.56761345e-07, -1.85026590e-06, -7.28166185e-07,
          -1.09919462e-07, -1.15071089e-06, -1.17537411e-07,
          -7.05021023e-07, -1.81331995e-06, -1.97901795e-06,
          -2.23093684e-06, 2.64684445e-07, 3.29202607e-07,
          -1.17887544e-06, -2.17061279e-06, -2.43193369e-07,
          -1.32277046e-06, -3.31076563e-07, -3.93989126e-07,
          -9.99240797e-07, 1.29877958e-06, 9.10775839e-07,
          -8.17365617e-07, -2.99061276e-06, -4.32584955e-07,
          2.29070579e-07, -1.18456489e-06, -1.95843336e-06,
          -1.45027013e-06, -1.19750325e-06, -1.25134966e-06,
          -6.51796711e-07, -1.72298883e-06, -2.18362899e-07,
          -9.63642947e-07, 2.72728414e-07, 7.13078634e-07,
          -5.42735324e-06, -1.01629030e-06, -1.55087673e-06,
          -2.21956748e-06, -4.30416272e-08, 9.05212573e-07,
          -1.75550397e-07, 1.11168220e-06, -4.98057098e-08,
          -1.98504222e-06, -9.22998424e-07, -2.00182967e-06,
          -8.51434265e-07, -1.98462249e-06, -2.88172782e-06,
          -1.01392823e-06, -1.20384414e-06, -7.68524046e-07,
          -2.51335905e-06, -1.24179053e-07, -2.43369414e-06,
          -1.53600286e-06, -2.74478975e-06, -6.96583527e-07,
          -3.26449026e-07, 2.16786452e-06, 8.74329714e-07,
          -9.30569058e-07, 1.75033080e-07, 3.04961395e-06,
          3.54804047e-06, 2.31523836e-06, -3.64687935e-06,
          6.96118207e-07, 1.19355093e-06, -2.14808506e-06,
          -2.22841663e-06, -2.31219678e-06, -4.02808610e-06,
          -1.74290824e-06, -3.49911920e-06, -1.93943788e-06,
          4.97969268e-07, -4.68490100e-07, 3.95686470e-07,
          3.88319137e-07, -8.77997707e-07, 5.07798575e-07,
          -9.57992029e-07, -8.32856756e-07, -3.83503175e-06,
          -2.50031735e-06, -1.73641035e-06, -2.48164611e-07,
          -3.12416228e-06, -3.47094237e-06, -1.84018290e-06,
          -2.31291392e-06, -2.84700945e-06, -3.21909874e-06,
          -1.77099400e-06, -1.89352932e-06, -2.63009520e-06,
          -8.59017928e-06, -8.00236080e-07, -4.13232874e-06,
          -1.89495802e-06, -3.70443149e-06, -3.82494636e-06,
          -3.13430678e-06, -1.90417029e-06, -4.12190866e-06,
          -4.14480837e-06, -4.06158824e-06, -2.19923891e-06,
          -1.51091967e-06, -1.88148067e-06, -3.72016643e-06,
          -2.04101116e-06, -2.10390795e-06, -3.25616929e-06,
          -3.58533839e-06, -6.17060232e-06, -1.35626152e-07,
          -3.24931148e-06, 8.07814445e-07, -2.18110790e-06,
          -1.20147172e-06, -1.22838458e-06, 1.20971504e-06,
          -5.56958412e-07, 1.33116328e-06, -4.81943118e-07,
          4.09308541e-06, 2.54104725e-06, 3.02357535e-06,
          -6.47776801e-07, 6.54863186e-07, 8.81916890e-07,
          1.62536168e-07, -5.79746768e-07, 1.65648055e-06,
          2.97782890e-07, 1.13122985e-06, 1.38485314e-06, 2.26854399e-06,
          3.52011170e-06, 4.06611349e-07, 2.24820565e-06,
          -1.10196549e-06, 7.38448819e-07, 1.67517851e-06,
          3.48439633e-09, -1.47803789e-07, -5.99060229e-07,
          1.17533966e-06, 1.95453637e-07, 5.06970821e-07, 1.20245758e-07,
          5.18551758e-07, 4.80002029e-07, 4.10625262e-07, 9.18474882e-07,
          -1.20594029e-06, -5.49141816e-07, -3.60225499e-07,
          -8.95893606e-07, 2.23954075e-07, -4.80526433e-06,
          -1.10080555e-06, 3.34194027e-07, -3.22575033e-07,
          -1.20759114e-06, -1.89566776e-06, -8.38127676e-07,
          -5.59958607e-07, -9.25388690e-07, -2.51415736e-06,
          -1.42960312e-06, -1.38759322e-06, 1.07976632e-06,
          1.61698566e-07, 6.69095584e-07, 5.26258532e-07, 1.52197697e-06,
          -4.58717409e-07, -1.40818929e-06, 1.21775167e-06,
          1.14708280e-06, -1.24698062e-07, -1.83497593e-06,
          6.18046158e-07, 1.57583418e-06, -1.14013108e-06,
          1.07180608e-06, 3.52832444e-07, 1.78545361e-06, 1.72238924e-06,
          -3.75550741e-07, 1.55537111e-06 ]
   uncompressed_sv_total: 49
   uncompressed_support_vectors:
      - [ 1.36831357e+04, 1.69628186e+03, 2.23925854e+03, 2.33280127e+03,
          1.86323853e+03, 3.23618213e+03, 1.64865759e+03, 7.57497864e+02,
          2.27738550e+03, 1.99108972e+03, 1.23106848e+03, 1.34438525e+03,
          8.59050049e+02, 3.21234155e+03, 1.52590759e+03, 1.72328296e+03,
          1.79997644e+03, 1.43459961e+03, 3.57920264e+03, 6.47252686e+02,
          1.40548511e+03, 8.67900330e+02, 2.09544604e+03, 1.84006165e+03,
          1.06684631e+03, 1.81190601e+03, 1.42128955e+03, 1.61738782e+03,
          1.21357996e+03, 1.04998108e+03, 1.20872131e+03, 7.05551123e+03,
          2.20660110e+02, 8.88847656e+02, 1.29636792e+03, 1.72035938e+03,
          1.97345154e+03, 2.20193921e+03, 1.63494885e+03, 8.91523132e+02,
          2.46638208e+03, 2.18361670e+03, 7.30700073e+02, 1.84628198e+03,
          1.26000977e+03, 2.95393604e+03, 1.99937646e+03, 2.15896094e+03,
          1.25718298e+03, 2.11148315e+03, 4.33624121e+03, 1.52641016e+03,
          1.80524036e+03, 1.82659387e+03, 2.96521802e+03, 2.71008203e+03,
          1.68764282e+03, 2.77778638e+03, 2.63648389e+03, 2.31866235e+03,
          1.85912390e+03, 1.87856519e+03, 1.75127380e+03, 3.62088684e+02,
          1.39421016e+04, 1.78230090e+03, 2.58008301e+03, 2.41993237e+03,
          1.78062048e+03, 2.65373682e+03, 1.21050818e+03, 1.12547302e+03,
          2.50688354e+03, 2.68403809e+03, 1.81733276e+03, 1.47995386e+03,
          8.56538391e+02, 3.63159497e+03, 1.92643945e+03, 1.44715027e+03,
          1.88690906e+03, 1.89245374e+03, 3.04785083e+03, 9.56300720e+02,
          1.81346240e+03, 1.03706738e+03, 2.56093335e+03, 2.03117822e+03,
          7.46446228e+02, 1.57869153e+03, 1.56849194e+03, 1.54491553e+03,
          1.41676721e+03, 9.28152954e+02, 8.15203674e+02, 1.30138397e+02,
          6.41062988e+03, 8.60424255e+02, 1.20153882e+03, 1.85660632e+03,
          1.13806848e+03, 1.74549255e+03, 1.47451355e+03, 8.88486450e+02,
          2.22894238e+03, 1.59431543e+03, 8.20892517e+02, 1.61393958e+03,
          9.46010742e+02, 3.12926929e+03, 8.92342529e+02, 1.62533252e+03,
          1.71958008e+03, 1.60820190e+03, 3.60953638e+03, 8.95737610e+02,
          1.57859167e+03, 1.72714209e+03, 2.73186035e+03, 3.22939648e+03,
          2.08385864e+03, 1.67083044e+03, 2.57933032e+03, 3.17763110e+03,
          3.32064819e+03, 3.25398145e+03, 1.89932996e+03, 2.93536816e+03,
          1.51293867e+04, 2.71864722e+03, 6.02118115e+03, 5.54557422e+03,
          3.56237695e+03, 5.05605664e+03, 3.51427173e+03, 3.96403369e+03,
          5.72383936e+03, 5.28455420e+03, 2.68953271e+03, 5.25304102e+03,
          4.95918750e+03, 9.04711230e+03, 5.94434082e+03, 6.40978027e+03,
          6.36774951e+03, 5.03859912e+03, 5.61956885e+03, 3.65775708e+03,
          5.43897070e+03, 4.03171851e+03, 4.78069531e+03, 7.45953125e+03,
          3.70452637e+03, 6.11765674e+03, 4.94015918e+03, 4.96225439e+03,
          5.39320117e+03, 3.38926294e+03, 4.19960840e+03, 1.02506934e+04,
          2.01843542e+03, 5.75260303e+03, 3.98349829e+03, 2.82753662e+03,
          3.22241602e+03, 4.57268018e+03, 3.50126074e+03, 2.81768188e+03,
          5.47612061e+03, 5.56756445e+03, 3.29605200e+03, 4.88982471e+03,
          3.61864648e+03, 6.52967773e+03, 4.59036035e+03, 3.41902759e+03,
          3.62521045e+03, 4.34595947e+03, 4.97754932e+03, 2.55306885e+03,
          3.20087134e+03, 3.29453906e+03, 5.06284863e+03, 5.07820410e+03,
          3.94444995e+03, 4.07820459e+03, 4.78560938e+03, 2.79420142e+03,
          2.35871289e+03, 2.44360010e+03, 2.92035449e+03, 1.41219885e+03,
          1.62771738e+04, 2.91022168e+03, 3.66268262e+03, 3.94169702e+03,
          3.62445581e+03, 3.85337402e+03, 4.25432812e+03, 2.17601147e+03,
          5.61986719e+03, 3.62537305e+03, 3.81748193e+03, 2.86815039e+03,
          1.54729663e+03, 4.45890918e+03, 2.98335864e+03, 2.53311890e+03,
          2.32521411e+03, 2.43620142e+03, 4.46648828e+03, 1.39104700e+03,
          2.42459766e+03, 1.54641626e+03, 3.01336157e+03, 3.18975806e+03,
          1.34589575e+03, 2.81329224e+03, 2.35119141e+03, 1.60878345e+03,
          1.40807031e+03, 1.56438525e+03, 9.85049622e+02, 6.78969803e+01,
          8.01298779e+03, 6.68115479e+02, 2.15243677e+03, 1.55699817e+03,
          1.53491602e+03, 2.07810767e+03, 1.89860181e+03, 1.24963196e+03,
          2.66530908e+03, 2.15825122e+03, 9.72206055e+02, 1.60268909e+03,
          1.14821692e+03, 3.25403174e+03, 1.77112988e+03, 1.65710193e+03,
          2.09987329e+03, 1.51689758e+03, 4.14839941e+03, 1.55984875e+03,
          1.98572827e+03, 1.60874268e+03, 2.35251172e+03, 3.51262866e+03,
          1.52565540e+03, 3.19554810e+03, 2.87352417e+03, 2.85516943e+03,
          3.74431934e+03, 2.85548657e+03, 2.96433862e+03, 7.06112793e+02,
          7.26916455e+03, 2.62490503e+03, 2.69425073e+03, 3.66647412e+03,
          3.02610522e+03, 3.45512817e+03, 2.65363232e+03, 1.55739697e+03,
          3.54131055e+03, 3.41735010e+03, 2.08221167e+03, 2.70154712e+03,
          1.63456848e+03, 4.50448975e+03, 2.87193164e+03, 3.75429077e+03,
          3.21970337e+03, 2.96506372e+03, 3.84490625e+03, 1.76191431e+03,
          2.78124658e+03, 2.00572742e+03, 3.46755688e+03, 4.27022900e+03,
          2.12726196e+03, 3.45663037e+03, 2.49893555e+03, 3.67205566e+03,
          2.33765845e+03, 2.23757617e+03, 2.08600537e+03, 6.99907959e+03,
          8.06258057e+02, 1.98413745e+03, 4.06397388e+03, 3.48269482e+03,
          3.41826758e+03, 4.38364697e+03, 4.15974561e+03, 4.62885596e+03,
          4.57355664e+03, 4.97274365e+03, 5.56007031e+03, 6.86123486e+03,
          8.29212793e+03, 8.55841699e+03, 9.42768555e+03, 1.21786699e+04,
          1.19391436e+04, 8.65317773e+03, 1.38511465e+04, 9.61608008e+03,
          1.42627236e+04, 1.13608809e+04, 1.53250068e+04, 1.74489238e+04,
          1.04577129e+04, 1.47774961e+04, 1.47526406e+04, 1.24795615e+04,
          1.63655693e+04, 1.08219219e+04, 9.40788965e+03, 4.53377539e+03,
          2.03499766e+04, 7.39336182e+03, 5.88497021e+03, 6.92394971e+03,
          8.04580615e+03, 7.97853711e+03, 5.54702979e+03, 6.69310205e+03,
          6.41420654e+03, 6.87833594e+03, 5.14893457e+03, 4.73578027e+03,
          4.16785010e+03, 7.20780664e+03, 5.84540625e+03, 5.88722998e+03,
          5.94859521e+03, 6.13007080e+03, 8.30124121e+03, 4.69643506e+03,
          4.54244873e+03, 3.78644019e+03, 6.25440381e+03, 6.44471631e+03,
          4.07398267e+03, 4.72703174e+03, 5.86349756e+03, 5.33657617e+03,
          5.20194629e+03, 4.01949780e+03, 3.78026440e+03, 1.47391602e+03,
          9.08363867e+03, 3.57188184e+03, 4.01709937e+03, 4.17302002e+03,
          3.72749512e+03, 4.50920947e+03, 5.45361865e+03, 4.45007178e+03,
          5.25788477e+03, 5.59207080e+03, 3.55359888e+03, 4.93097510e+03,
          4.33504004e+03, 4.40352441e+03, 3.51857886e+03, 4.52153711e+03,
          3.13256299e+03, 3.15975220e+03, 5.72391943e+03, 3.79403467e+03,
          3.48357959e+03, 3.13919141e+03, 4.41158398e+03, 5.13971045e+03,
          3.02682861e+03, 3.03045483e+03, 3.61125928e+03, 3.86343018e+03,
          4.02956689e+03, 4.01999731e+03, 3.65853760e+03, 2.17432031e+03,
          1.01853145e+04, 3.08441870e+03, 4.92645020e+03, 3.04445312e+03,
          2.36639355e+03, 4.69345605e+03, 4.01346606e+03, 4.07504883e+03,
          4.18933301e+03, 2.74183740e+03, 1.38141602e+03, 2.74975000e+03,
          1.86610559e+03, 4.12450146e+03, 2.03154077e+03, 2.13667139e+03,
          2.83810547e+03, 2.28175830e+03, 3.12843457e+03, 1.23538025e+03,
          2.50618042e+03, 1.45111829e+03, 2.71459668e+03, 2.21144360e+03,
          1.59635229e+03, 2.37663403e+03, 2.45612427e+03, 3.66485522e+03,
          4.16269141e+03, 2.23456958e+03, 1.24697754e+03, 6.74313721e+03,
          1.95463696e+03, 2.16095728e+03, 3.43629541e+03, 4.48696777e+03,
          5.91197412e+03, 6.96951807e+03, 4.75347510e+03, 5.35131836e+03,
          6.41534766e+03, 1.26622139e+04, 8.88680664e+03, 9.10041211e+03,
          1.14029951e+04, 1.45335332e+04, 1.06718252e+04, 1.21335176e+04,
          1.37332832e+04, 1.41874258e+04, 1.76993672e+04, 1.36000449e+04,
          9.98737793e+03, 1.53346592e+04, 1.29698789e+04, 1.19198398e+04,
          1.53316436e+04, 1.55265947e+04, 1.62443477e+04, 7.45410400e+03,
          4.97239209e+03, 5.67601123e+03, 4.84250244e+03, 2.41439111e+03,
          1.26143174e+04, 4.53322266e+03, 3.88236377e+03, 5.30410742e+03,
          5.73861133e+03, 5.67837061e+03, 5.97904590e+03, 1.87154517e+03,
          3.04273193e+03, 2.24485571e+03, 2.95495361e+03, 1.72488342e+03,
          8.25514832e+02, 2.38441040e+03, 1.44608325e+03, 1.50415515e+03,
          1.70333142e+03, 1.84230493e+03, 3.13423389e+03, 1.09136450e+03,
          1.79168225e+03, 1.09464807e+03, 2.44886914e+03, 2.33680762e+03,
          1.18385388e+03, 2.52450610e+03, 2.94199097e+03, 1.80697302e+03,
          2.14789941e+03, 1.60557703e+03, 1.57507312e+03, 3.73421509e+02,
          4.45343555e+03, 1.90196924e+03, 1.34039172e+03, 1.87939453e+03,
          1.87789331e+03, 2.67812061e+03, 2.37525537e+03, 1.68211389e+03,
          3.02088013e+03, 3.94882080e+03, 2.14738892e+03, 3.15582397e+03,
          1.95290942e+03, 3.97016602e+03, 2.49794629e+03, 3.17216260e+03,
          2.97619751e+03, 3.39534741e+03, 3.86445557e+03, 2.27026245e+03,
          3.29084570e+03, 3.54965454e+03, 4.29949414e+03, 4.95585938e+03,
          2.06740479e+03, 3.18566187e+03, 3.93338062e+03, 3.63463013e+03,
          4.56711328e+03, 3.94859546e+03, 4.27316602e+03, 1.48819580e+03,
          1.66247324e+04, 1.00826260e+04, 1.17019160e+04, 1.32299629e+04,
          8.21126074e+03, 7.73041943e+03, 6.96775488e+03, 1.12556260e+04,
          1.36640850e+04, 1.45034795e+04, 1.05469443e+04, 9.46895801e+03,
          5.70679980e+03, 9.58153613e+03, 6.00778320e+03, 5.90007568e+03,
          5.05122412e+03, 6.26650000e+03, 6.93622266e+03, 4.99963965e+03,
          4.25129443e+03, 3.85295288e+03, 6.74530957e+03, 5.98763574e+03,
          3.45397437e+03, 3.68985547e+03, 6.45070020e+03, 4.74951221e+03,
          4.20554297e+03, 3.86987817e+03, 3.75050317e+03, 7.63703125e+03,
          2.62224951e+03, 3.14178174e+03, 4.33318848e+03, 5.34036475e+03,
          4.00813623e+03, 5.21090527e+03, 5.09953711e+03, 3.91196997e+03,
          3.70899683e+03, 6.30475098e+03, 3.49868115e+03, 4.27400195e+03,
          2.69173413e+03, 3.96966602e+03, 4.50464014e+03, 6.20013623e+03,
          5.05420361e+03, 7.17164404e+03, 7.32150586e+03, 4.78903516e+03,
          5.40577246e+03, 3.96184326e+03, 6.42262646e+03, 7.21601514e+03,
          3.26734131e+03, 3.54668286e+03, 3.95097095e+03, 4.81625635e+03,
          4.44604590e+03, 3.86000879e+03, 3.12489478e+03, 2.42728442e+03,
          1.08524297e+04, 3.81089185e+03, 4.95114893e+03, 4.52260498e+03,
          5.14734717e+03, 5.40287305e+03, 5.58279395e+03, 4.35554297e+03,
          4.96723193e+03, 4.38589697e+03, 3.16228979e+03, 4.05001123e+03,
          3.56713062e+03, 6.46343555e+03, 4.64377930e+03, 3.28889746e+03,
          4.11078516e+03, 5.72702637e+03, 6.33117920e+03, 4.38709717e+03,
          6.21552979e+03, 3.97576562e+03, 5.79816797e+03, 4.91480957e+03,
          4.48716406e+03, 4.68733691e+03, 4.12741602e+03, 5.16853955e+03,
          4.25700928e+03, 3.52520947e+03, 1.85961548e+03, 1.82735645e+03,
          7.55216553e+03, 2.34783887e+03, 3.07042114e+03, 4.02447412e+03,
          3.03454272e+03, 2.86790723e+03, 3.31967334e+03, 3.53070850e+03,
          3.96645264e+03, 4.56285742e+03, 1.97486462e+03, 2.80537378e+03,
          3.68302173e+03, 5.25468359e+03, 4.18256006e+03, 4.15961084e+03,
          4.65788965e+03, 3.96082397e+03, 4.66845312e+03, 4.63090967e+03,
          4.73467090e+03, 5.73505273e+03, 5.14488574e+03, 7.36789014e+03,
          3.76435303e+03, 5.28765723e+03, 8.34555664e+03, 9.99844531e+03,
          1.44191543e+04, 1.52186064e+04, 9.97084473e+03, 6.46573291e+03,
          1.36956865e+04, 9.64730957e+03, 9.64483496e+03, 1.21662090e+04,
          9.17442969e+03, 9.12759473e+03, 8.42660547e+03, 4.80712744e+03,
          4.94837549e+03, 4.23926465e+03, 3.91340283e+03, 4.27216650e+03,
          5.18010645e+03, 5.32487109e+03, 4.64701953e+03, 3.24583765e+03,
          4.18614111e+03, 3.39161694e+03, 6.74656689e+03, 4.14312207e+03,
          5.58699414e+03, 2.79063574e+03, 5.09630078e+03, 5.36204883e+03,
          4.47876465e+03, 6.33905322e+03, 6.11069580e+03, 6.47843018e+03,
          4.77304004e+03, 6.99505225e+03, 5.97891699e+03, 1.27000996e+04,
          3.96623657e+03, 5.33695361e+03, 4.65873730e+03, 3.82243677e+03,
          5.68315723e+03, 7.30860449e+03, 5.69988770e+03, 6.15141406e+03,
          5.96936719e+03, 5.39437451e+03, 4.70411523e+03, 6.34827686e+03,
          6.93688818e+03, 8.26012402e+03, 9.50528906e+03, 6.08381543e+03,
          5.99326465e+03, 6.69925928e+03, 7.82965820e+03, 8.85182129e+03,
          9.20621582e+03, 6.74063867e+03, 1.13917129e+04, 6.74332471e+03,
          7.74712549e+03, 5.91369580e+03, 6.92064844e+03, 9.73058789e+03,
          8.95221484e+03, 1.20081465e+04, 9.49763086e+03, 6.94264355e+03,
          1.78099141e+04, 1.21314365e+04, 1.32090010e+04, 1.56186260e+04,
          1.09228965e+04, 1.03953311e+04, 1.35171191e+04, 5.61749805e+03,
          9.28714844e+03, 9.08049609e+03, 1.01144932e+04, 7.11923047e+03,
          4.66131396e+03, 7.97315332e+03, 4.87896729e+03, 5.38695264e+03,
          6.67231396e+03, 5.86377246e+03, 7.73177734e+03, 4.08946240e+03,
          5.34513525e+03, 5.02540771e+03, 7.32767578e+03, 7.78107324e+03,
          4.68369580e+03, 5.86935791e+03, 6.77198291e+03, 6.55554004e+03,
          4.93713281e+03, 6.20999854e+03, 6.45780225e+03, 2.51620557e+03,
          1.34258486e+04, 5.61139648e+03, 7.78528955e+03, 8.32539941e+03,
          8.12841406e+03, 7.30617822e+03, 7.13734961e+03, 7.70770557e+03,
          9.79081543e+03, 8.86375000e+03, 7.73065723e+03, 7.71220166e+03,
          8.75225879e+03, 1.07037920e+04, 6.63741895e+03, 7.36780664e+03,
          7.18049805e+03, 8.21349121e+03, 7.01752148e+03, 5.10796924e+03,
          5.26515723e+03, 5.42753564e+03, 6.90286914e+03, 8.67752637e+03,
          7.02741260e+03, 6.39567676e+03, 7.74607959e+03, 9.02514551e+03,
          6.66173584e+03, 7.78055762e+03, 9.00098926e+03, 9.79747168e+03,
          1.06661436e+04, 3.52662744e+03, 3.84921851e+03, 3.67303369e+03,
          3.57894312e+03, 4.67529492e+03, 3.26374976e+03, 3.61767163e+03,
          5.00129736e+03, 5.13871191e+03, 3.67782446e+03, 3.72165015e+03,
          2.51318506e+03, 6.07753271e+03, 4.74216211e+03, 4.78770801e+03,
          4.55353613e+03, 4.12721094e+03, 6.02064258e+03, 3.21554395e+03,
          4.34956641e+03, 2.91005566e+03, 5.00501660e+03, 4.50031445e+03,
          2.70062964e+03, 3.73795386e+03, 4.76380322e+03, 4.31973584e+03,
          3.78543799e+03, 3.49574365e+03, 3.35832910e+03, 1.05430967e+04,
          9.81695862e+02, 3.17578394e+03, 3.74514648e+03, 4.83084766e+03,
          4.55976123e+03, 4.47862646e+03, 4.57821777e+03, 2.42439453e+03,
          5.31807568e+03, 6.22165576e+03, 3.16631372e+03, 4.41817969e+03,
          3.21734009e+03, 6.33375293e+03, 4.18734277e+03, 4.08372949e+03,
          4.62206006e+03, 4.07326904e+03, 5.96680225e+03, 3.06795605e+03,
          2.79589526e+03, 3.86014307e+03, 5.60227637e+03, 5.41160693e+03,
          2.68091821e+03, 3.91642969e+03, 4.88939990e+03, 4.91585156e+03,
          4.23610889e+03, 3.63169360e+03, 3.12037842e+03, 1.40317468e+03,
          1.22192207e+04, 2.69578638e+03, 3.79461133e+03, 3.61412183e+03,
          2.87569287e+03, 3.56910718e+03, 3.45630859e+03, 2.11678613e+03,
          4.13318506e+03, 3.77565454e+03, 2.44776880e+03, 2.97219116e+03,
          3.35076318e+03, 5.73918848e+03, 3.71051123e+03, 3.49784375e+03,
          4.00281519e+03, 3.10010498e+03, 4.25860498e+03, 1.92912769e+03,
          2.30008716e+03, 1.25415674e+03, 2.67621680e+03, 2.75343262e+03,
          1.24076868e+03, 1.74191101e+03, 2.35334277e+03, 2.12558325e+03,
          1.34240601e+03, 1.62956665e+03, 1.13773657e+03, 2.06519287e+02,
          4.77582324e+03, 1.24822974e+03, 1.66062354e+03, 2.26427026e+03,
          2.04030652e+03, 1.85951538e+03, 2.50708447e+03, 1.87150525e+03,
          2.88352979e+03, 3.16750171e+03, 1.84657849e+03, 1.61839990e+03,
          1.84858228e+03, 2.69993579e+03, 1.57926953e+03, 1.73459216e+03,
          1.93052539e+03, 1.45873059e+03, 2.49129858e+03, 1.19551599e+03,
          1.71168652e+03, 1.39262073e+03, 1.76335034e+03, 1.96675220e+03,
          9.23064514e+02, 1.64815833e+03, 2.09029443e+03, 1.57059302e+03,
          1.66626978e+03, 1.23823022e+03, 1.17077405e+03, 3.83033813e+02,
          5.34304688e+03, 1.14782788e+03, 8.49607666e+02, 1.10312354e+03,
          1.07738965e+03, 1.27284265e+03, 1.03312219e+03, 6.19041565e+02,
          1.88554272e+03, 1.12979956e+03, 1.18862085e+03, 4.74729919e+02,
          4.09299805e+02, 2.16619165e+03, 1.11133350e+03, 1.10193018e+03,
          1.05020044e+03, 1.06863208e+03, 1.38819861e+03, 5.21974609e+02,
          5.29944092e+02, 6.58644897e+02, 1.53947229e+03, 1.41044849e+03,
          7.00141479e+02, 1.03020825e+03, 1.40147961e+03, 9.08956238e+02,
          6.41609802e+02, 8.10381042e+02, 6.49531799e+02, 3.50868018e+03,
          2.05105408e+02, 8.46242188e+02, 1.11658606e+03, 1.10141504e+03,
          1.54942859e+03, 2.04127734e+03, 1.88677209e+03, 1.01967700e+03,
          2.35851660e+03, 2.97436597e+03, 1.05829102e+03, 1.39676794e+03,
          1.93368689e+03, 3.46958545e+03, 2.51714136e+03, 2.70023633e+03,
          3.29707080e+03, 2.21705127e+03, 3.81068652e+03, 2.01280762e+03,
          3.42109009e+03, 2.88846118e+03, 5.14490186e+03, 3.20567651e+03,
          3.38027979e+03, 3.31980176e+03, 3.73146973e+03, 3.57785913e+03,
          3.65251807e+03, 3.32258716e+03, 3.16219678e+03, 1.85429883e+03,
          9.36837988e+03, 2.34757349e+03, 2.13801050e+03, 3.00841724e+03,
          2.87240479e+03, 3.28540039e+03, 2.50618774e+03, 2.42082080e+03,
          4.08495410e+03, 2.96189331e+03, 2.67865430e+03, 2.34430469e+03,
          1.33855591e+03, 3.87962207e+03, 2.85997778e+03, 2.68835376e+03,
          2.42133716e+03, 2.92303467e+03, 3.94152344e+03, 1.97164233e+03,
          2.64024463e+03, 2.60990430e+03, 3.03359961e+03, 3.31466943e+03,
          1.81695264e+03, 2.67728101e+03, 3.02678052e+03, 2.29330347e+03,
          2.26801343e+03, 2.59724146e+03, 2.01387988e+03, 7.52497803e+02,
          8.00880029e+03, 2.59960059e+03, 2.62290796e+03, 2.44595776e+03,
          2.92223291e+03, 3.84845264e+03, 2.78096265e+03, 2.66650415e+03,
          4.06873657e+03, 3.18460107e+03, 1.49603162e+03, 3.19971094e+03,
          2.21901758e+03, 4.06185010e+03, 3.21700415e+03, 3.40852710e+03,
          3.38605566e+03, 3.93374194e+03, 4.26672217e+03, 2.30575781e+03,
          3.24962354e+03, 2.65352856e+03, 4.01236670e+03, 4.39329102e+03,
          3.26021216e+03, 4.58244238e+03, 4.10676074e+03, 3.46806494e+03,
          3.76678369e+03, 3.21993677e+03, 4.00407495e+03, 2.08036548e+03 ]
      - [ 2.58348770e+04, 1.68333594e+04, 1.58079463e+04, 1.91418574e+04,
          1.61511465e+04, 1.94270938e+04, 9.73294629e+03, 1.04144082e+04,
          1.06654785e+04, 7.84649268e+03, 7.88766211e+03, 4.26188086e+03,
          5.36714502e+03, 6.86369629e+03, 5.08307471e+03, 7.77392139e+03,
          6.26235449e+03, 5.69093506e+03, 9.45584668e+03, 4.20521826e+03,
          5.67698145e+03, 5.32328809e+03, 7.41030273e+03, 7.46270508e+03,
          6.49397607e+03, 8.42184082e+03, 7.47868799e+03, 7.18943115e+03,
          6.86613135e+03, 6.65342773e+03, 5.06802686e+03, 1.36744023e+04,
          3.61375195e+03, 4.83425830e+03, 6.16349561e+03, 5.85709082e+03,
          6.98722949e+03, 6.18130518e+03, 6.36345068e+03, 6.93326465e+03,
          7.74730811e+03, 7.28750830e+03, 5.32869238e+03, 5.67136035e+03,
          3.97003857e+03, 8.15173047e+03, 5.40794775e+03, 4.27201221e+03,
          4.65565771e+03, 6.61211963e+03, 7.83782910e+03, 5.44968994e+03,
          4.86378320e+03, 4.83018945e+03, 5.67652441e+03, 6.05690674e+03,
          4.24838818e+03, 8.68895801e+03, 8.96372070e+03, 9.09493359e+03,
          1.67894219e+04, 1.31704883e+04, 3.26413164e+04, 4.14582148e+04,
          5.44076836e+04, 3.25977324e+04, 2.39961367e+04, 1.67001953e+04,
          9.15408301e+03, 9.32461719e+03, 6.72623828e+03, 6.34673145e+03,
          6.32140674e+03, 3.42606128e+03, 4.47680078e+03, 3.67128931e+03,
          2.75346411e+03, 6.18052686e+03, 3.50910864e+03, 6.56821045e+03,
          4.83300732e+03, 4.80583691e+03, 6.86693896e+03, 3.86181250e+03,
          3.64031201e+03, 2.90005200e+03, 4.90877734e+03, 4.07624731e+03,
          3.84366211e+03, 3.25549805e+03, 3.79791382e+03, 2.79028027e+03,
          3.96229419e+03, 3.57646851e+03, 2.96752930e+03, 2.19101562e+03,
          1.06054600e+04, 3.62981934e+03, 5.28375049e+03, 3.51369482e+03,
          4.48462061e+03, 6.26533838e+03, 4.93540479e+03, 5.39891162e+03,
          7.72378809e+03, 6.62043896e+03, 5.42947559e+03, 6.81109277e+03,
          4.78988867e+03, 7.38703027e+03, 5.68514062e+03, 6.03684131e+03,
          6.30765674e+03, 5.53438770e+03, 6.77766650e+03, 5.65625244e+03,
          5.83542139e+03, 5.91973730e+03, 5.16285010e+03, 8.89875977e+03,
          5.94302490e+03, 6.48178174e+03, 7.17638623e+03, 6.35018994e+03,
          5.44447559e+03, 7.24968652e+03, 5.95671875e+03, 2.54932935e+03,
          1.25375713e+04, 7.74953906e+03, 6.90239990e+03, 7.67808008e+03,
          5.30460596e+03, 5.12279443e+03, 4.59417969e+03, 3.81570605e+03,
          4.36703320e+03, 3.16340137e+03, 2.41275391e+03, 3.16543823e+03,
          3.87495459e+03, 4.43501758e+03, 2.39225513e+03, 3.01947437e+03,
          3.19055908e+03, 3.08310913e+03, 3.38470020e+03, 3.97361401e+03,
          3.12626807e+03, 2.59542725e+03, 4.00654150e+03, 3.27019287e+03,
          3.85627881e+03, 3.46942285e+03, 3.74943628e+03, 3.08809961e+03,
          3.27747314e+03, 2.98092773e+03, 2.46521069e+03, 7.31339307e+03,
          2.47526416e+03, 3.09080347e+03, 3.60584497e+03, 4.26058789e+03,
          4.80058154e+03, 4.71964795e+03, 4.53405811e+03, 3.73839380e+03,
          5.03765625e+03, 4.24187305e+03, 6.56300488e+03, 5.18255518e+03,
          4.02776660e+03, 6.27077393e+03, 5.46399902e+03, 5.64973340e+03,
          6.04041113e+03, 5.17268750e+03, 7.18697949e+03, 5.40193213e+03,
          6.35516797e+03, 6.32074072e+03, 7.02528662e+03, 1.07563027e+04,
          1.06512451e+04, 8.99759863e+03, 9.96664453e+03, 1.46049072e+04,
          1.04253535e+04, 1.23266533e+04, 9.07164551e+03, 7.66983447e+03,
          1.41122080e+04, 1.19730830e+04, 1.01726787e+04, 8.73971973e+03,
          7.44411133e+03, 5.71232373e+03, 6.16488477e+03, 4.65772510e+03,
          4.81819238e+03, 6.76649854e+03, 5.61243213e+03, 6.49388477e+03,
          3.97243994e+03, 5.92134473e+03, 5.71782471e+03, 4.76801318e+03,
          3.26435352e+03, 4.37866602e+03, 3.98309717e+03, 4.01656104e+03,
          4.51385254e+03, 3.03208521e+03, 3.49569873e+03, 3.87707617e+03,
          2.87762158e+03, 3.39013232e+03, 3.62059351e+03, 3.88599902e+03,
          3.56020142e+03, 2.92602954e+03, 2.40865527e+03, 1.83590015e+03,
          6.05448047e+03, 1.79451074e+03, 1.59676843e+03, 3.17246606e+03,
          2.92267310e+03, 3.80197021e+03, 4.13694971e+03, 3.71535864e+03,
          5.25927197e+03, 4.56942529e+03, 3.62765259e+03, 6.52990674e+03,
          5.38906885e+03, 6.57485645e+03, 6.07331494e+03, 5.66731787e+03,
          7.51437354e+03, 7.60836621e+03, 9.73301367e+03, 6.38553711e+03,
          5.03245361e+03, 5.51076562e+03, 3.95091992e+03, 7.17334961e+03,
          4.90792236e+03, 5.60453564e+03, 4.71663672e+03, 6.18853174e+03,
          7.69505176e+03, 1.06316865e+04, 8.03561816e+03, 1.02021436e+04,
          3.90328477e+04, 2.48361758e+04, 2.64412051e+04, 2.39919238e+04,
          2.43686641e+04, 2.45826777e+04, 2.03634922e+04, 2.36967852e+04,
          2.69087051e+04, 2.76019199e+04, 2.69220469e+04, 2.43761875e+04,
          2.48406113e+04, 2.64256113e+04, 2.50204570e+04, 2.34041914e+04,
          2.89160059e+04, 2.69433047e+04, 2.31720156e+04, 3.03790645e+04,
          2.23659824e+04, 2.18731074e+04, 2.32145293e+04, 1.83073984e+04,
          2.02774688e+04, 2.28063242e+04, 2.02681367e+04, 2.19215215e+04,
          2.18851113e+04, 1.90144473e+04, 2.03199707e+04, 2.76738262e+04,
          1.31738525e+04, 2.08030684e+04, 2.18769707e+04, 2.25629102e+04,
          2.37063320e+04, 1.93695859e+04, 2.27475977e+04, 2.03002871e+04,
          1.99787832e+04, 2.19662031e+04, 2.02005156e+04, 1.68686895e+04,
          1.95425117e+04, 2.16162949e+04, 2.05000996e+04, 1.84282793e+04,
          2.22317734e+04, 1.96912422e+04, 2.13183086e+04, 1.82857676e+04,
          1.97051836e+04, 2.18960371e+04, 2.17426992e+04, 2.21888477e+04,
          2.33142227e+04, 2.41697832e+04, 2.80682598e+04, 2.36156836e+04,
          2.62420664e+04, 4.39990352e+04, 4.66561914e+04, 4.37801445e+04,
          5.54819102e+04, 3.41646133e+04, 3.65880664e+04, 4.53563789e+04,
          3.52194023e+04, 3.05779902e+04, 2.73976836e+04, 2.68321406e+04,
          2.61622461e+04, 1.91669336e+04, 2.01677031e+04, 1.85721133e+04,
          1.68193145e+04, 1.93286270e+04, 1.90114883e+04, 1.81127715e+04,
          1.64289316e+04, 1.86198418e+04, 1.57998809e+04, 1.65292871e+04,
          1.42910303e+04, 1.63315254e+04, 1.66982559e+04, 1.79056738e+04,
          1.67603027e+04, 1.58331055e+04, 1.75151309e+04, 1.70184980e+04,
          1.81407402e+04, 1.81497598e+04, 1.77858438e+04, 9.58840723e+03,
          1.90222773e+04, 1.49236318e+04, 1.51136660e+04, 1.53515088e+04,
          1.47597695e+04, 1.56151338e+04, 1.65430684e+04, 1.44100352e+04,
          1.76998262e+04, 1.53740625e+04, 1.38082393e+04, 1.83131680e+04,
          1.45805850e+04, 1.46601562e+04, 1.70837363e+04, 1.64756777e+04,
          1.75885527e+04, 2.25935000e+04, 2.16566758e+04, 1.86176406e+04,
          1.92725254e+04, 2.06482129e+04, 2.05852520e+04, 2.03331211e+04,
          1.79989941e+04, 1.94461230e+04, 2.13271504e+04, 1.88908770e+04,
          2.14691309e+04, 2.27561250e+04, 1.87384316e+04, 1.46919121e+04,
          3.40701992e+04, 2.42094727e+04, 2.36364883e+04, 2.06814336e+04,
          2.22986699e+04, 2.26914707e+04, 2.33657480e+04, 2.27534297e+04,
          2.17426660e+04, 2.58805566e+04, 2.10723789e+04, 1.84797598e+04,
          1.85797441e+04, 1.79742148e+04, 2.01335156e+04, 2.14013594e+04,
          2.20198301e+04, 2.03375195e+04, 2.11264355e+04, 2.10497793e+04,
          2.28346211e+04, 2.16973613e+04, 2.34782715e+04, 2.06104414e+04,
          2.00229336e+04, 1.95880449e+04, 2.20447930e+04, 2.39685039e+04,
          2.27597344e+04, 2.16359375e+04, 2.30374277e+04, 3.52833984e+04,
          1.27409521e+04, 2.53385215e+04, 2.32704941e+04, 2.50854785e+04,
          2.25514336e+04, 2.39679688e+04, 2.35284707e+04, 2.11204980e+04,
          2.51481309e+04, 2.27949316e+04, 2.18005234e+04, 2.27682090e+04,
          1.90511035e+04, 2.10580820e+04, 2.07042637e+04, 1.91478691e+04,
          2.04349863e+04, 2.22656152e+04, 2.06675273e+04, 1.83213711e+04,
          1.97680586e+04, 1.78722812e+04, 1.92234824e+04, 2.35105312e+04,
          2.35397012e+04, 2.07493750e+04, 2.28143594e+04, 2.11896699e+04,
          2.11427539e+04, 2.20101055e+04, 2.20885664e+04, 1.62388896e+04,
          3.61861094e+04, 1.66228555e+04, 1.95786602e+04, 2.14799766e+04,
          1.83957109e+04, 2.06476582e+04, 2.26071797e+04, 1.98984727e+04,
          1.93140625e+04, 1.90646816e+04, 2.22060195e+04, 2.53234102e+04,
          2.11404805e+04, 2.16382227e+04, 2.14807227e+04, 2.11816738e+04,
          1.98731992e+04, 2.14637285e+04, 2.15608672e+04, 1.99164082e+04,
          2.22702910e+04, 1.95821152e+04, 2.44335723e+04, 2.21058750e+04,
          2.30984102e+04, 2.37922676e+04, 2.06236621e+04, 2.23050039e+04,
          2.04728223e+04, 2.24508418e+04, 2.34090352e+04, 1.68413242e+04,
          3.10300977e+04, 2.17272656e+04, 2.28551738e+04, 1.96359258e+04,
          2.33044668e+04, 2.38152852e+04, 2.06891992e+04, 1.74249941e+04,
          2.04280703e+04, 2.48635859e+04, 1.84066875e+04, 1.98184824e+04,
          2.10112598e+04, 2.06488945e+04, 2.12684980e+04, 2.09609980e+04,
          2.45077500e+04, 2.33915527e+04, 2.39876172e+04, 2.07392188e+04,
          2.16082793e+04, 1.83548809e+04, 2.66319941e+04, 2.38351387e+04,
          2.25376309e+04, 2.22651602e+04, 2.21965801e+04, 2.15897227e+04,
          2.48129824e+04, 2.67249043e+04, 2.04967852e+04, 1.73639883e+04,
          2.51142793e+04, 1.58742236e+04, 1.25536670e+04, 1.26749463e+04,
          1.47676738e+04, 1.04280811e+04, 1.04090869e+04, 9.40029785e+03,
          1.46383506e+04, 1.15525234e+04, 1.13240020e+04, 1.09820996e+04,
          1.11340938e+04, 1.24581709e+04, 9.87926562e+03, 9.87253516e+03,
          9.87395605e+03, 9.27246582e+03, 7.38046729e+03, 9.17177930e+03,
          9.27873828e+03, 1.12697275e+04, 1.01463018e+04, 1.33133701e+04,
          9.15634180e+03, 7.57449756e+03, 9.39572559e+03, 1.09890859e+04,
          6.77121191e+03, 1.08804766e+04, 8.97245605e+03, 1.29947393e+04,
          6.99986963e+03, 7.73352441e+03, 9.72120605e+03, 1.05467998e+04,
          1.00867324e+04, 1.20947119e+04, 1.21253574e+04, 9.86622754e+03,
          1.02955371e+04, 1.16229111e+04, 8.12690625e+03, 9.88159473e+03,
          1.17137441e+04, 1.04095811e+04, 1.15098438e+04, 1.29266572e+04,
          1.34738047e+04, 1.28924150e+04, 1.44950107e+04, 1.38508584e+04,
          1.20494141e+04, 1.13443281e+04, 1.42728633e+04, 1.10904668e+04,
          9.91255371e+03, 1.21645107e+04, 1.01672676e+04, 1.40458896e+04,
          1.29719229e+04, 1.29638867e+04, 1.47774346e+04, 1.25543105e+04,
          4.28753945e+04, 4.71078125e+04, 2.03459199e+04, 1.54033613e+04,
          1.91594492e+04, 1.54412275e+04, 1.62915752e+04, 1.40785088e+04,
          1.64568691e+04, 1.76277793e+04, 1.39992959e+04, 1.43901318e+04,
          1.51223594e+04, 1.29509590e+04, 1.14902744e+04, 1.26817803e+04,
          1.27296807e+04, 1.29603164e+04, 1.56057041e+04, 1.26133916e+04,
          1.47724023e+04, 1.50365117e+04, 1.62846729e+04, 1.50567549e+04,
          1.23437744e+04, 1.71651172e+04, 1.40097725e+04, 1.38295400e+04,
          1.46872246e+04, 1.39155674e+04, 1.20888701e+04, 9.11718848e+03,
          1.99743496e+04, 1.22461494e+04, 1.62305742e+04, 1.45037041e+04,
          1.41080234e+04, 1.49807822e+04, 1.55044062e+04, 1.30869121e+04,
          1.41965967e+04, 1.46306143e+04, 1.21888613e+04, 1.29905312e+04,
          9.89810547e+03, 1.09141172e+04, 1.07007314e+04, 1.10528428e+04,
          1.31122441e+04, 1.68697441e+04, 1.65708926e+04, 1.02972227e+04,
          1.16679414e+04, 1.25705723e+04, 1.16159043e+04, 1.46523457e+04,
          1.02912158e+04, 1.09773535e+04, 1.16057197e+04, 1.21175127e+04,
          1.39024629e+04, 1.28157246e+04, 1.29263477e+04, 8.16698145e+03,
          1.60187002e+04, 1.21488057e+04, 1.03753740e+04, 1.31011562e+04,
          9.72968164e+03, 1.10816436e+04, 1.05018877e+04, 9.15033203e+03,
          1.13838457e+04, 1.15835156e+04, 1.18733066e+04, 1.05305127e+04,
          7.70937891e+03, 1.44365820e+04, 8.28433398e+03, 1.18833418e+04,
          1.17844648e+04, 1.07280918e+04, 1.04524277e+04, 9.23154980e+03,
          9.03059473e+03, 1.03709072e+04, 9.84830566e+03, 8.56328613e+03,
          8.53178320e+03, 8.48313184e+03, 9.55756836e+03, 9.37282324e+03,
          9.05058203e+03, 8.78086230e+03, 1.12374971e+04, 1.29295820e+04,
          6.63356543e+03, 9.67152734e+03, 8.89055371e+03, 8.23882520e+03,
          8.52465723e+03, 7.03869434e+03, 1.02138145e+04, 6.18253418e+03,
          1.00422051e+04, 6.26097607e+03, 8.50411719e+03, 1.19751152e+04,
          7.48433301e+03, 7.79475439e+03, 6.85774170e+03, 8.31161426e+03,
          9.73174414e+03, 1.22035752e+04, 8.78658887e+03, 7.26861914e+03,
          9.09511523e+03, 1.14377930e+04, 1.31521074e+04, 9.90035352e+03,
          1.33541885e+04, 1.20273984e+04, 1.19681582e+04, 1.41380166e+04,
          1.99675488e+04, 2.39175879e+04, 2.38063008e+04, 2.27675254e+04,
          4.24744961e+04, 1.75291270e+04, 1.56564590e+04, 1.66039238e+04,
          1.02467119e+04, 1.16922490e+04, 8.46921777e+03, 8.18453418e+03,
          8.24191211e+03, 9.71454688e+03, 9.03684766e+03, 8.53968164e+03,
          8.87336719e+03, 9.34956641e+03, 1.05056826e+04, 8.85266895e+03,
          8.08976416e+03, 8.56646094e+03, 8.57375977e+03, 8.58594238e+03,
          8.02369678e+03, 7.14987988e+03, 9.09104102e+03, 8.44717676e+03,
          1.02646494e+04, 7.74717969e+03, 6.42527490e+03, 7.19153760e+03,
          9.99710645e+03, 1.04637568e+04, 9.67858594e+03, 7.83434229e+03,
          1.48745713e+04, 8.62712500e+03, 1.12558027e+04, 9.73247656e+03,
          8.21430273e+03, 9.16322461e+03, 7.06025146e+03, 8.53121680e+03,
          1.35465439e+04, 1.08011338e+04, 9.04011816e+03, 1.17469502e+04,
          8.23964551e+03, 9.18760352e+03, 9.81635645e+03, 1.55644180e+04,
          1.22381562e+04, 1.28036240e+04, 1.46659199e+04, 1.30470703e+04,
          1.43472441e+04, 1.38171787e+04, 1.29483223e+04, 1.62008955e+04,
          1.28121406e+04, 1.64723145e+04, 1.18638535e+04, 1.52227568e+04,
          1.43727852e+04, 1.60099111e+04, 1.26337168e+04, 1.02870967e+04,
          2.41918945e+04, 1.21158105e+04, 1.29662012e+04, 1.81730742e+04,
          2.38809902e+04, 1.95048594e+04, 2.58703828e+04, 3.18747969e+04,
          3.08454570e+04, 2.25033965e+04, 1.90344023e+04, 1.99212383e+04,
          2.09861328e+04, 1.88950293e+04, 1.60824678e+04, 1.44775381e+04,
          1.62159160e+04, 1.59176738e+04, 1.74898223e+04, 1.67175176e+04,
          1.82811914e+04, 2.02973047e+04, 1.83642070e+04, 2.29353887e+04,
          1.59247314e+04, 1.45680303e+04, 1.24560908e+04, 1.67876895e+04,
          1.37264629e+04, 1.38769492e+04, 1.04333213e+04, 2.15551191e+04,
          9.51892480e+03, 1.20095928e+04, 1.48782236e+04, 1.54099189e+04,
          1.41247168e+04, 1.85071504e+04, 1.54463242e+04, 1.12739277e+04,
          1.46128594e+04, 1.43477109e+04, 1.21309717e+04, 1.19137637e+04,
          1.26608018e+04, 1.73641992e+04, 1.47783330e+04, 1.49671445e+04,
          1.22123809e+04, 1.42325410e+04, 1.51948545e+04, 1.20241006e+04,
          1.61483486e+04, 1.59192490e+04, 2.06380098e+04, 1.74489219e+04,
          1.96433145e+04, 1.89900039e+04, 2.13124180e+04, 1.51646436e+04,
          1.71166406e+04, 1.65613105e+04, 1.88896465e+04, 1.27226582e+04,
          3.06767012e+04, 1.52950918e+04, 1.71352246e+04, 1.64020840e+04,
          2.00587520e+04, 1.81264141e+04, 1.64799043e+04, 1.58327021e+04,
          1.95737227e+04, 1.51417520e+04, 1.75877148e+04, 1.27792656e+04,
          1.40489092e+04, 1.63871035e+04, 1.40229053e+04, 1.18115332e+04,
          1.51867314e+04, 1.40003672e+04, 1.35982021e+04, 1.40516309e+04,
          1.19925156e+04, 1.26909014e+04, 1.51214541e+04, 1.58289316e+04,
          1.64635820e+04, 1.20931768e+04, 1.55275391e+04, 1.38757432e+04,
          1.28694316e+04, 1.09797588e+04, 1.24105166e+04, 9.33363281e+03,
          2.12228770e+04, 1.54003857e+04, 1.49938369e+04, 1.73123203e+04,
          1.52855605e+04, 1.31635156e+04, 1.27470273e+04, 1.17886582e+04,
          1.42280195e+04, 1.43708486e+04, 1.60970088e+04, 1.44648389e+04,
          1.69389141e+04, 1.55877314e+04, 1.65674453e+04, 1.39161953e+04,
          1.31955967e+04, 1.37067266e+04, 1.76205723e+04, 1.25749990e+04,
          1.31570967e+04, 1.28096953e+04, 1.24301895e+04, 1.41752178e+04,
          1.35926426e+04, 1.51683584e+04, 1.32602881e+04, 1.46371895e+04,
          1.47332754e+04, 1.63196406e+04, 1.37425498e+04, 1.19474014e+04,
          2.34660234e+04, 1.57334092e+04, 1.90889785e+04, 2.07017031e+04,
          2.02549668e+04, 1.70474434e+04, 1.60979805e+04, 1.47810703e+04,
          1.40133271e+04, 1.37553779e+04, 1.26262803e+04, 1.30083730e+04,
          8.62445605e+03, 1.28767979e+04, 1.47885967e+04, 1.45202773e+04,
          1.25986172e+04, 1.46561797e+04, 1.24779688e+04, 1.08832109e+04,
          1.14351260e+04, 1.02439443e+04, 1.16484258e+04, 1.26968008e+04,
          1.09287988e+04, 1.41157676e+04, 1.02619766e+04, 1.64200684e+04,
          1.34176855e+04, 1.28136787e+04, 1.11588037e+04, 2.01872793e+04,
          7.90239355e+03, 1.11965498e+04, 1.56114580e+04, 1.28755684e+04,
          1.68245176e+04, 1.57486055e+04, 1.46943311e+04, 1.48970293e+04,
          1.86255371e+04, 1.38912051e+04, 1.43190684e+04, 1.36024102e+04,
          1.09266465e+04, 1.64725234e+04, 1.64108848e+04, 1.58359785e+04,
          1.58984951e+04, 1.93969316e+04, 1.97553535e+04, 2.09709492e+04,
          2.34233730e+04, 2.38856406e+04, 2.08746543e+04, 2.65565117e+04,
          2.11913574e+04, 2.74966816e+04, 2.05231387e+04, 2.55348594e+04,
          2.60997930e+04, 2.53831582e+04, 2.50038281e+04, 3.01280527e+04,
          4.47742812e+04, 3.11571660e+04, 2.96553965e+04, 2.96499414e+04,
          2.95793418e+04, 2.41264219e+04, 2.34681504e+04, 1.91827852e+04,
          2.24141230e+04, 2.25428887e+04, 1.83200391e+04, 2.05399219e+04,
          2.09561602e+04, 1.62039639e+04, 2.11473125e+04, 2.02505000e+04,
          2.35535078e+04, 2.27700312e+04, 2.27195547e+04, 1.24034746e+04,
          1.85065020e+04, 1.37471504e+04, 2.05011113e+04, 1.99740547e+04,
          1.58820195e+04, 1.85174121e+04, 1.59067461e+04, 1.88939180e+04,
          1.43805547e+04, 1.39143984e+04, 1.47268877e+04, 8.14121484e+03,
          1.98198867e+04, 1.40956641e+04, 1.39069727e+04, 1.22036104e+04,
          1.47781377e+04, 1.23785674e+04, 1.21430322e+04, 1.45276689e+04,
          1.45321836e+04, 1.14989072e+04, 1.21481963e+04, 1.13593848e+04,
          9.19832129e+03, 1.42725967e+04, 1.42485850e+04, 9.43798633e+03,
          1.22041230e+04, 1.47152803e+04, 1.73382695e+04, 9.40153320e+03,
          1.31981621e+04, 1.03736992e+04, 1.34406172e+04, 1.29427910e+04,
          1.04300986e+04, 1.19363506e+04, 1.27595117e+04, 1.33082256e+04,
          1.10786084e+04, 1.72887168e+04, 1.45631338e+04, 9.90145508e+03 ]
      - [ 3.48784688e+04, 1.95246328e+04, 2.51472754e+04, 3.44180156e+04,
          3.92016406e+04, 3.69841094e+04, 2.38877656e+04, 1.95881523e+04,
          2.06996523e+04, 1.90045195e+04, 1.74047090e+04, 1.87415391e+04,
          1.60543115e+04, 1.68061523e+04, 1.37006504e+04, 1.47832520e+04,
          1.35621621e+04, 1.01615557e+04, 1.03040791e+04, 8.50189941e+03,
          1.02561641e+04, 9.61703223e+03, 1.47199785e+04, 1.15194453e+04,
          8.46298535e+03, 9.23671875e+03, 8.57258887e+03, 8.12843750e+03,
          9.34496387e+03, 9.10144824e+03, 9.45382520e+03, 1.20413164e+04,
          5.57275830e+03, 7.57423291e+03, 8.59550879e+03, 8.92328516e+03,
          7.14558447e+03, 7.63913086e+03, 8.66515137e+03, 8.68672949e+03,
          9.18599414e+03, 1.06407920e+04, 7.05685889e+03, 9.77313574e+03,
          9.05441992e+03, 8.76762891e+03, 6.18176172e+03, 8.57715234e+03,
          7.40271289e+03, 8.04915479e+03, 7.62152100e+03, 7.40025293e+03,
          8.80590820e+03, 5.87323926e+03, 7.55429785e+03, 6.83755420e+03,
          8.04459570e+03, 6.43637354e+03, 9.94637402e+03, 1.10163145e+04,
          8.70983203e+03, 5.93651611e+03, 9.27045312e+03, 7.28888477e+03,
          1.22456797e+04, 1.33967500e+04, 8.68543848e+03, 1.15466768e+04,
          1.45745039e+04, 1.81313203e+04, 1.43003896e+04, 8.03265625e+03,
          9.63321094e+03, 1.30468828e+04, 8.36616406e+03, 8.67122754e+03,
          8.42740820e+03, 9.24703320e+03, 8.18011914e+03, 6.54533789e+03,
          6.39035010e+03, 6.18435303e+03, 5.04079395e+03, 6.87260107e+03,
          6.31612695e+03, 5.49123340e+03, 7.60910498e+03, 8.35751367e+03,
          7.39546436e+03, 6.83723584e+03, 6.34741895e+03, 7.46625000e+03,
          6.55952100e+03, 7.49864355e+03, 6.62173438e+03, 5.19948584e+03,
          1.21729004e+04, 9.64264355e+03, 8.13606445e+03, 7.70769092e+03,
          7.49934229e+03, 7.92561865e+03, 6.96673682e+03, 9.01466504e+03,
          8.66365625e+03, 7.85782812e+03, 8.20749023e+03, 6.78794043e+03,
          8.06849268e+03, 9.45470508e+03, 7.80451758e+03, 9.12420898e+03,
          1.00164355e+04, 9.58833789e+03, 1.27908867e+04, 8.90062402e+03,
          1.03115234e+04, 1.33447920e+04, 1.68860039e+04, 1.61676426e+04,
          1.64635605e+04, 2.31296953e+04, 1.98855703e+04, 1.89798535e+04,
          2.43436348e+04, 1.97996406e+04, 1.62545137e+04, 1.68436738e+04,
          3.31878438e+04, 2.73433887e+04, 3.35930781e+04, 3.22053906e+04,
          3.29177344e+04, 3.57757852e+04, 2.60398379e+04, 2.31305703e+04,
          3.00210898e+04, 2.47166621e+04, 1.95168242e+04, 2.23893066e+04,
          1.67365020e+04, 2.02687617e+04, 1.38700225e+04, 1.27540830e+04,
          1.08945527e+04, 1.27181924e+04, 1.15993027e+04, 1.03389209e+04,
          8.93492090e+03, 9.75943848e+03, 9.92204199e+03, 1.02213047e+04,
          8.43095703e+03, 7.26482471e+03, 8.89052344e+03, 7.08251709e+03,
          9.03803223e+03, 7.54096484e+03, 8.32884375e+03, 1.29054785e+04,
          6.00264502e+03, 7.72723193e+03, 8.81907520e+03, 9.85946777e+03,
          1.06402871e+04, 7.59297168e+03, 1.32792744e+04, 1.34444395e+04,
          1.23403975e+04, 1.15859951e+04, 1.16569463e+04, 1.27511562e+04,
          1.25350576e+04, 1.19432607e+04, 1.04604453e+04, 1.12653154e+04,
          7.52827100e+03, 8.48414062e+03, 9.79526660e+03, 6.90969336e+03,
          9.69526953e+03, 8.37325488e+03, 1.27495879e+04, 1.34257656e+04,
          7.36538184e+03, 8.57418359e+03, 7.91456689e+03, 8.58009961e+03,
          7.95032129e+03, 8.48391211e+03, 6.10967969e+03, 9.14099902e+03,
          1.86550996e+04, 1.24223682e+04, 1.49085596e+04, 1.74689609e+04,
          1.11756768e+04, 1.54008145e+04, 1.17006699e+04, 7.65739160e+03,
          8.36611914e+03, 1.43561104e+04, 1.00477539e+04, 1.04977373e+04,
          8.65643555e+03, 1.13541094e+04, 1.07568691e+04, 7.70489697e+03,
          9.14015723e+03, 8.66130762e+03, 9.16375488e+03, 8.77883594e+03,
          5.83958252e+03, 6.90910986e+03, 8.46945605e+03, 9.89328027e+03,
          9.71038867e+03, 9.07421777e+03, 8.78305371e+03, 7.84103662e+03,
          9.15983984e+03, 7.13904541e+03, 7.01258008e+03, 6.33495215e+03,
          1.19621240e+04, 8.27532227e+03, 9.85204785e+03, 1.15209590e+04,
          1.37133193e+04, 1.04162744e+04, 1.15494639e+04, 1.15546445e+04,
          1.01940557e+04, 1.31772842e+04, 1.17411045e+04, 1.27547383e+04,
          1.06644160e+04, 1.39208770e+04, 8.88014160e+03, 1.13790762e+04,
          1.06110312e+04, 9.77985352e+03, 1.16646826e+04, 1.14599824e+04,
          1.35518926e+04, 1.40362080e+04, 1.19982871e+04, 1.49499805e+04,
          1.28218916e+04, 1.43626348e+04, 1.29771377e+04, 1.74930039e+04,
          1.55158818e+04, 2.03007656e+04, 1.39309443e+04, 9.92609863e+03,
          3.75914180e+04, 2.49653496e+04, 2.51152930e+04, 2.72713555e+04,
          2.64067891e+04, 2.48217715e+04, 2.11081113e+04, 1.89006289e+04,
          2.57783848e+04, 2.16752578e+04, 2.22443965e+04, 2.63050352e+04,
          2.50713262e+04, 2.82349316e+04, 2.39117168e+04, 2.17215547e+04,
          3.55509961e+04, 2.66053672e+04, 32726., 2.44718223e+04,
          2.09597070e+04, 1.75059375e+04, 2.25852031e+04, 2.31854258e+04,
          1.89889863e+04, 2.55778125e+04, 2.17791758e+04, 2.07650996e+04,
          1.79830996e+04, 2.52243848e+04, 1.88385723e+04, 2.67527500e+04,
          9.23194141e+03, 1.75333340e+04, 1.57805762e+04, 1.72534648e+04,
          1.66004570e+04, 1.66634473e+04, 1.78000645e+04, 1.79280449e+04,
          1.74588105e+04, 1.62514785e+04, 1.52235137e+04, 1.67241504e+04,
          1.44793965e+04, 1.65399883e+04, 1.56971475e+04, 1.83345117e+04,
          1.75001523e+04, 1.67432695e+04, 2.14327871e+04, 1.75205273e+04,
          1.75346641e+04, 1.59325576e+04, 1.84909531e+04, 2.17733320e+04,
          1.90007324e+04, 1.88055781e+04, 2.13879004e+04, 2.18925000e+04,
          2.25435781e+04, 2.18026152e+04, 2.07128359e+04, 1.42440811e+04,
          4.42618906e+04, 2.29337207e+04, 2.02455098e+04, 2.19360723e+04,
          1.81216113e+04, 2.13851172e+04, 1.80414961e+04, 1.86772832e+04,
          2.07635684e+04, 1.91767109e+04, 1.89082305e+04, 2.02679922e+04,
          1.62691143e+04, 1.94971602e+04, 2.06556562e+04, 1.74724844e+04,
          1.83105859e+04, 1.96625723e+04, 1.70051680e+04, 1.67326484e+04,
          1.42650029e+04, 1.50081719e+04, 1.92329785e+04, 1.60503994e+04,
          1.46777529e+04, 1.89273789e+04, 1.54799141e+04, 1.81028496e+04,
          1.40784873e+04, 1.56589785e+04, 1.64158945e+04, 8.78061230e+03,
          2.42068359e+04, 1.45781943e+04, 1.38861123e+04, 1.51006045e+04,
          1.42015938e+04, 1.73894629e+04, 1.67763633e+04, 1.51051787e+04,
          1.57225889e+04, 1.72288555e+04, 1.45986182e+04, 1.53991182e+04,
          1.54758350e+04, 1.90877871e+04, 1.57931826e+04, 1.96901211e+04,
          1.82629980e+04, 1.68228125e+04, 2.13446953e+04, 1.60915342e+04,
          2.14358184e+04, 1.87499688e+04, 2.19777988e+04, 2.14985996e+04,
          2.07827383e+04, 2.15120273e+04, 2.32677070e+04, 2.69711426e+04,
          2.56590527e+04, 2.43195586e+04, 2.41330215e+04, 2.14138281e+04,
          4.32657969e+04, 2.98307949e+04, 3.89686367e+04, 4.29427031e+04,
          4.57487266e+04, 4.51700703e+04, 4.72501289e+04, 4.12557695e+04,
          4.44864492e+04, 3.24304082e+04, 3.19509492e+04, 2.92460430e+04,
          3.04071387e+04, 3.54377930e+04, 2.81734316e+04, 2.31021836e+04,
          2.91125508e+04, 2.66379570e+04, 2.50641211e+04, 2.16293418e+04,
          2.50554844e+04, 1.80754902e+04, 2.42952598e+04, 2.03275293e+04,
          2.21742383e+04, 1.99020645e+04, 1.91092363e+04, 1.85504629e+04,
          1.89026152e+04, 1.68497383e+04, 1.69159766e+04, 2.36993184e+04,
          1.04596660e+04, 1.87574844e+04, 1.83673496e+04, 1.77348848e+04,
          1.78117305e+04, 1.80213672e+04, 1.52992002e+04, 1.50301904e+04,
          1.81068926e+04, 1.84542871e+04, 1.40096084e+04, 1.43492510e+04,
          1.44467266e+04, 1.58067812e+04, 1.46278076e+04, 1.68505078e+04,
          1.69257812e+04, 1.86602227e+04, 1.77357422e+04, 1.50048330e+04,
          1.75699082e+04, 2.18114512e+04, 1.91359160e+04, 2.06722910e+04,
          1.76096250e+04, 1.73480312e+04, 1.85524160e+04, 1.92106621e+04,
          1.99478379e+04, 1.76792031e+04, 1.93150254e+04, 1.08043574e+04,
          3.39318750e+04, 2.08275898e+04, 2.05662441e+04, 1.56705049e+04,
          2.38511934e+04, 1.71038027e+04, 1.95192227e+04, 1.80805156e+04,
          2.16067617e+04, 1.82390312e+04, 1.83251074e+04, 1.84124883e+04,
          1.42230371e+04, 1.77269902e+04, 1.79725254e+04, 1.73248496e+04,
          2.05539180e+04, 1.73852676e+04, 2.07651836e+04, 1.64605430e+04,
          1.94339609e+04, 1.66441152e+04, 1.96981738e+04, 1.89481191e+04,
          1.42913916e+04, 1.57541016e+04, 1.52228975e+04, 1.46609199e+04,
          1.47400117e+04, 1.42478359e+04, 1.32410381e+04, 8.58557031e+03,
          2.07123203e+04, 1.39130977e+04, 1.47540615e+04, 1.28189082e+04,
          1.63639834e+04, 1.67020449e+04, 1.53741553e+04, 1.61486064e+04,
          1.72066289e+04, 1.93914082e+04, 1.58828887e+04, 1.36005527e+04,
          1.35158545e+04, 1.60350635e+04, 1.31868789e+04, 1.56970371e+04,
          1.82867461e+04, 1.81229355e+04, 1.68763145e+04, 1.44867598e+04,
          1.39653740e+04, 1.50048721e+04, 1.59274795e+04, 1.75027090e+04,
          1.55928691e+04, 1.71057461e+04, 1.81007480e+04, 2.19987285e+04,
          1.94273809e+04, 1.94136602e+04, 1.83249316e+04, 1.28876523e+04,
          9.94722754e+03, 2.00455884e+03, 1.08296960e+03, 1.61467273e+03,
          2.31005908e+03, 1.59754248e+03, 4.22493164e+03, 3.10510718e+03,
          2.84465039e+03, 4.45644043e+03, 2.90771167e+03, 2.47309790e+03,
          2.60350171e+03, 3.31984204e+03, 4.57923584e+03, 5.89130225e+03,
          3.35180054e+03, 2.30579565e+03, 5.03909570e+03, 1.52030676e+03,
          3.68287964e+03, 1.56420508e+03, 2.99528442e+03, 2.81787134e+03,
          9.82755920e+02, 1.14366211e+03, 3.47896802e+03, 1.16991028e+03,
          2.14165039e+03, 1.68381677e+03, 1.15626843e+03, 1.34216357e+03,
          7.29853821e+02, 2.48940356e+03, 1.85160059e+03, 1.32904016e+03,
          1.11323657e+03, 8.46426758e+02, 4.63851410e+02, 8.41825989e+02,
          2.25502731e+02, 1.03283105e+03, 6.39795227e+02, 2.33692902e+02,
          4.91965698e+02, 9.83527039e+02, 2.72952332e+02, 5.93258728e+02,
          1.09005325e+02, 3.81572815e+02, 5.64801270e+02, 3.47914612e+02,
          6.03982239e+02, 4.41703644e+02, 1.16136292e+03, 1.07830481e+03,
          2.86760742e+02, 2.49234528e+02, 1.84873181e+03, 4.94306885e+02,
          4.18647430e+02, 2.80584076e+02, 3.32227509e+02, 2.48008072e+02,
          1.00731455e+04, 1.54047974e+03, 3.44614844e+03, 3.85728271e+03,
          1.19980840e+04, 1.42309600e+04, 1.78275527e+04, 5.28781396e+03,
          4.69418408e+03, 2.39167896e+03, 3.22555444e+03, 2.86337256e+03,
          1.47125989e+03, 1.25419275e+03, 9.74856201e+02, 6.18373779e+02,
          5.60952209e+02, 3.83027527e+02, 3.85065186e+02, 5.69390137e+02,
          5.59082764e+02, 1.52063733e+03, 7.58023682e+01, 6.51031250e+02,
          2.96245483e+02, 5.32017212e+02, 6.18404053e+02, 7.83997437e+02,
          4.82581879e+02, 1.41678238e+02, 2.39156403e+02, 0.,
          5.82667786e+02, 1.85397293e+02, 1.56533350e+03, 1.36238754e+02,
          1.59457108e+02, 5.42412781e+02, 1.71819977e+02, 1.62547638e+02,
          2.13856110e+02, 1.41315735e+02, 1.20071487e+02, 3.53560829e+01,
          8.72353821e+01, 2.24065781e+02, 2.32723221e+02, 3.75020752e+02,
          4.58670715e+02, 4.47350800e+02, 1.82218970e+03, 1.13225800e+02,
          9.86585876e+02, 5.50635986e+02, 4.38050232e+02, 3.41260010e+02,
          1.04739021e+02, 5.58985718e+02, 5.18757385e+02, 9.46412842e+02,
          8.16292419e+02, 1.52574280e+03, 1.90229102e+03, 5.10047882e+02,
          8.22801270e+03, 1.98371301e+03, 1.67409033e+03, 4.25192041e+03,
          2.77678418e+03, 3.89166357e+03, 2.01717865e+02, 1.19722217e+03,
          1.99228833e+03, 2.59634204e+03, 5.19886279e+03, 4.88876807e+03,
          4.60158203e+03, 2.87910815e+03, 6.52965674e+03, 3.06495630e+03,
          4.34291113e+03, 4.47780127e+03, 4.50925537e+03, 2.03419153e+03,
          1.64193445e+03, 5.74561768e+02, 1.50767261e+03, 2.87884351e+03,
          1.81292261e+03, 1.59915393e+03, 1.61513196e+03, 2.17725293e+03,
          3.43215479e+03, 3.38741187e+03, 4.07601257e+02, 2.33637842e+03,
          5.37449890e+02, 1.24693738e+03, 1.00885400e+03, 8.48905762e+02,
          2.36142960e+02, 5.20823364e+02, 1.59031921e+02, 5.29246765e+02,
          8.38310913e+02, 6.08185120e+02, 9.03175354e+02, 1.07331165e+03,
          9.99254639e+02, 4.47665710e+02, 5.29850769e+02, 4.09415405e+02,
          4.11878662e+02, 5.77046265e+02, 7.77322937e+02, 2.21955322e+03,
          9.61532166e+02, 4.48018585e+02, 8.13582886e+02, 1.14106873e+03,
          1.12191138e+03, 5.21974548e+02, 1.09803345e+03, 1.17635400e+03,
          6.57491150e+02, 6.56994690e+02, 1.10882446e+03, 4.72042053e+02,
          6.35219775e+03, 1.23385303e+03, 1.20606287e+03, 6.17462891e+02,
          4.19660217e+02, 2.30465479e+03, 1.67403430e+03, 7.72446289e+02,
          1.09127246e+03, 8.49141907e+02, 2.45232651e+02, 1.38686169e+03,
          8.93121338e+02, 1.36434070e+03, 1.97451584e+02, 7.60807861e+02,
          3.96557831e+02, 3.26250336e+02, 6.27470947e+02, 5.63997498e+02,
          4.17089600e+02, 4.92935059e+02, 7.68682739e+02, 9.98622986e+02,
          7.69973511e+02, 4.37102020e+02, 1.39812286e+02, 4.12775269e+02,
          2.27027161e+02, 3.95216858e+02, 5.12290527e+02, 7.05836304e+02,
          1.53594788e+03, 8.07968628e+02, 4.49210663e+02, 9.62859375e+02,
          2.58938324e+02, 1.48868945e+03, 2.65053528e+02, 9.16732849e+02,
          7.13371277e+02, 8.84299072e+02, 3.99645050e+02, 1.01775232e+03,
          5.63562073e+02, 5.46089783e+02, 3.68785522e+02, 1.64402954e+02,
          5.92378662e+02, 1.86684357e+02, 6.90661438e+02, 0.,
          3.19641541e+02, 2.28035088e+01, 6.70694946e+02, 4.73059692e+02,
          5.68797913e+02, 5.87895996e+02, 7.08288147e+02, 3.46102539e+02,
          1.44010522e+03, 2.03521777e+03, 1.94528979e+03, 1.54319373e+03,
          1.62170898e+04, 1.25531543e+04, 9.25239844e+03, 1.24191465e+04,
          8.97166699e+03, 1.39511465e+04, 7.60259424e+03, 9.21482812e+03,
          1.03888350e+04, 7.22131982e+03, 4.70083203e+03, 5.73320850e+03,
          4.29181104e+03, 3.47812671e+03, 2.86527979e+03, 3.48299463e+03,
          2.77772510e+03, 3.33366577e+03, 2.42319824e+03, 4.50668750e+03,
          2.63714600e+03, 2.79637842e+03, 2.76304834e+03, 3.76608252e+03,
          2.29965698e+03, 1.70493262e+03, 5.33939941e+03, 2.54676904e+03,
          3.66174487e+03, 3.28718872e+03, 3.30916064e+03, 4.04072998e+03,
          3.43144873e+03, 4.52155859e+03, 4.52004150e+03, 4.70637305e+03,
          4.56130322e+03, 3.29180591e+03, 4.06324536e+03, 5.83799414e+03,
          6.19480420e+03, 6.35916797e+03, 6.02554102e+03, 4.06066870e+03,
          4.13768799e+03, 6.40219922e+03, 3.02396973e+03, 4.49213379e+03,
          4.22504541e+03, 4.45015527e+03, 5.34012012e+03, 6.48812451e+03,
          4.06574438e+03, 4.12666895e+03, 4.04911328e+03, 6.46530713e+03,
          5.39493018e+03, 4.19707861e+03, 3.83051904e+03, 4.22324756e+03,
          5.83837500e+03, 5.45730029e+03, 3.24542651e+03, 3.39742041e+03,
          1.57625791e+04, 4.35610156e+03, 3.58582373e+03, 3.19491992e+03,
          5.26351758e+03, 6.00736230e+03, 4.63642871e+03, 4.32951611e+03,
          4.20579883e+03, 4.99136133e+03, 6.34022900e+03, 4.96315088e+03,
          5.58773828e+03, 3.90630518e+03, 3.33348071e+03, 4.44955762e+03,
          3.09471143e+03, 4.05224365e+03, 4.09046753e+03, 3.27723779e+03,
          2.79430518e+03, 2.07462256e+03, 3.39922754e+03, 4.27105615e+03,
          4.22949707e+03, 1.90999890e+03, 1.44371143e+03, 2.17695166e+03,
          2.62328442e+03, 1.76983813e+03, 3.29606494e+03, 1.30833374e+03,
          3.95305762e+03, 2.41842969e+03, 2.00211255e+03, 3.23380981e+03,
          2.63409521e+03, 2.40237134e+03, 5.77586035e+03, 5.67483643e+03,
          2.91545801e+03, 5.11344678e+03, 4.45084766e+03, 3.97906299e+03,
          3.38328223e+03, 3.75187598e+03, 5.39443896e+03, 6.91999414e+03,
          6.58081738e+03, 4.69631641e+03, 4.04930103e+03, 6.58538623e+03,
          5.25907617e+03, 4.33790674e+03, 5.43181201e+03, 6.60593506e+03,
          5.05767432e+03, 4.28585986e+03, 7.59879297e+03, 7.77263135e+03,
          1.42035615e+04, 1.01114307e+04, 9.83123828e+03, 1.07153477e+04,
          1.56252021e+04, 1.22386123e+04, 1.11746963e+04, 1.91064922e+04,
          2.23437559e+04, 2.45250332e+04, 3.06923535e+04, 2.48356387e+04,
          3.00048496e+04, 2.53112266e+04, 1.85888398e+04, 2.11657969e+04,
          1.48552178e+04, 9.70458789e+03, 1.28148027e+04, 1.36116162e+04,
          1.15458174e+04, 1.03478135e+04, 1.16458496e+04, 7.33170215e+03,
          1.02569629e+04, 8.11413916e+03, 7.76112598e+03, 6.87395654e+03,
          5.70903906e+03, 3.89305103e+03, 5.94023389e+03, 2.64845288e+03,
          3.96374048e+03, 3.77989917e+03, 4.18033545e+03, 5.68560254e+03,
          1.78510059e+03, 3.37233691e+03, 2.69481421e+03, 2.63996021e+03,
          2.87881812e+03, 2.83816211e+03, 2.03649805e+03, 3.64744824e+03,
          4.35839111e+03, 3.52395312e+03, 4.71164746e+03, 2.86442529e+03,
          3.82250732e+03, 3.32787695e+03, 3.58448242e+03, 3.75233154e+03,
          6.33738379e+03, 7.25065283e+03, 7.83033740e+03, 5.45104688e+03,
          6.75141357e+03, 4.38317236e+03, 3.53746777e+03, 6.28181787e+03,
          7.88738916e+03, 5.82634912e+03, 8.49783105e+03, 5.86936475e+03,
          7.51880322e+03, 6.21316895e+03, 4.81818945e+03, 2.77736841e+03,
          2.00254492e+04, 7.64801514e+03, 4.36033350e+03, 7.46701807e+03,
          6.55471436e+03, 5.16292969e+03, 4.12292432e+03, 4.61971191e+03,
          5.63773926e+03, 6.72258105e+03, 4.23381982e+03, 3.15018750e+03,
          5.45714600e+03, 4.00687378e+03, 3.71674023e+03, 4.78717627e+03,
          2.87016675e+03, 2.72454053e+03, 5.26351660e+03, 2.58753931e+03,
          2.61810620e+03, 3.79768066e+03, 3.67349243e+03, 4.67202246e+03,
          4.00403711e+03, 2.51568823e+03, 2.58210229e+03, 5.08204639e+03,
          3.11947534e+03, 2.88183032e+03, 3.04728076e+03, 1.41727405e+03,
          2.56421021e+03, 2.71740747e+03, 3.95633301e+03, 2.67438159e+03,
          3.43234131e+03, 2.83277490e+03, 2.86864697e+03, 2.58215112e+03,
          3.22465625e+03, 4.72379834e+03, 3.25675244e+03, 2.90815039e+03,
          5.55461621e+03, 5.41850439e+03, 6.19298291e+03, 6.97068701e+03,
          7.45541113e+03, 6.38402441e+03, 1.05482744e+04, 7.66153857e+03,
          1.04898662e+04, 5.49009521e+03, 8.62846191e+03, 4.95953613e+03,
          6.99428174e+03, 1.02030400e+04, 6.93610840e+03, 9.39416016e+03,
          8.94612891e+03, 8.75920117e+03, 9.63207715e+03, 1.34794932e+04 ]
      - [ 1.80702480e+04, 9.98410938e+03, 9.55451758e+03, 7.94569873e+03,
          9.60155664e+03, 7.27703711e+03, 8.11234570e+03, 7.22616602e+03,
          8.53680371e+03, 6.62573975e+03, 7.20649170e+03, 5.30487305e+03,
          6.77407568e+03, 7.27937354e+03, 6.34475879e+03, 8.11209814e+03,
          7.24958154e+03, 6.73272754e+03, 7.97160596e+03, 7.34996094e+03,
          7.84266699e+03, 8.14873828e+03, 8.72748145e+03, 8.09543799e+03,
          7.85382715e+03, 6.94397998e+03, 8.56682617e+03, 8.04846387e+03,
          1.13132871e+04, 7.88579541e+03, 8.35856641e+03, 1.16113701e+04,
          6.81034229e+03, 7.58667529e+03, 7.50723438e+03, 8.03170605e+03,
          1.10350352e+04, 6.70749609e+03, 5.35916650e+03, 5.89716357e+03,
          7.89404297e+03, 5.53680225e+03, 6.57426807e+03, 6.76327539e+03,
          6.38407471e+03, 7.64471484e+03, 6.84731299e+03, 6.36432617e+03,
          8.53216602e+03, 7.53086523e+03, 8.33055566e+03, 6.94354834e+03,
          7.56553955e+03, 8.07974365e+03, 9.76484277e+03, 1.07285264e+04,
          8.26141797e+03, 8.51522363e+03, 9.79439355e+03, 8.67659082e+03,
          8.61392285e+03, 8.94362793e+03, 1.01502715e+04, 6.24487402e+03,
          3.73698359e+04, 1.29097979e+04, 1.14861152e+04, 1.13960996e+04,
          1.12707148e+04, 1.11597031e+04, 7.94161328e+03, 7.78025195e+03,
          9.50423828e+03, 8.57300879e+03, 5.44767676e+03, 6.70807373e+03,
          5.11419629e+03, 9.13250879e+03, 7.03600244e+03, 7.12472559e+03,
          8.02062793e+03, 7.89745264e+03, 9.64290137e+03, 6.87437793e+03,
          7.80728076e+03, 7.11616406e+03, 1.13513896e+04, 8.27443848e+03,
          5.74565479e+03, 7.40288672e+03, 9.83231445e+03, 8.84092578e+03,
          7.82352393e+03, 8.78628223e+03, 8.59925000e+03, 7.85127686e+03,
          1.37412432e+04, 7.81326465e+03, 8.90518262e+03, 7.58122510e+03,
          1.04916797e+04, 8.15941699e+03, 9.33084277e+03, 8.64240039e+03,
          1.06734541e+04, 1.03657285e+04, 9.97449707e+03, 7.59374805e+03,
          8.49039941e+03, 8.98153613e+03, 8.89734766e+03, 8.19897559e+03,
          8.49947070e+03, 7.91913818e+03, 8.90550977e+03, 8.27064258e+03,
          8.49097070e+03, 9.26521387e+03, 9.29840234e+03, 9.55034473e+03,
          8.84012109e+03, 1.06298730e+04, 1.42000430e+04, 8.53924316e+03,
          1.44569111e+04, 9.19537988e+03, 1.18885557e+04, 9.93750000e+03,
          1.85771973e+04, 1.10661924e+04, 1.06966621e+04, 8.58840625e+03,
          1.23322617e+04, 1.08158311e+04, 7.64874316e+03, 7.63524951e+03,
          7.50079248e+03, 7.71835156e+03, 6.72234961e+03, 7.72064355e+03,
          5.08442627e+03, 9.27629199e+03, 5.84030908e+03, 6.03523779e+03,
          6.84439453e+03, 5.77251709e+03, 5.95241406e+03, 5.52027881e+03,
          5.46362451e+03, 4.32977197e+03, 4.95358447e+03, 5.83155713e+03,
          4.14357861e+03, 2.84770166e+03, 4.88867432e+03, 3.64939990e+03,
          3.27543237e+03, 3.25480005e+03, 3.99677344e+03, 9.15328711e+03,
          1.99720544e+03, 2.95643848e+03, 3.59324634e+03, 3.27568579e+03,
          2.15819824e+03, 3.73441357e+03, 3.25110083e+03, 3.23398853e+03,
          4.24269043e+03, 3.74578052e+03, 4.11778223e+03, 3.78306299e+03,
          2.63147119e+03, 4.81232568e+03, 3.77462524e+03, 4.84400977e+03,
          4.81162549e+03, 5.89455957e+03, 7.71002832e+03, 6.43819922e+03,
          5.15489111e+03, 5.63850732e+03, 7.54255811e+03, 8.79887109e+03,
          4.83448926e+03, 8.62325684e+03, 1.18105156e+04, 1.04949775e+04,
          1.01052070e+04, 1.13818945e+04, 9.08062988e+03, 6.03375342e+03,
          2.34200020e+04, 6.77778955e+03, 7.58709668e+03, 6.28878955e+03,
          8.20284863e+03, 5.75075830e+03, 5.49691650e+03, 5.50054590e+03,
          5.15668164e+03, 5.65158350e+03, 4.39731885e+03, 4.36106689e+03,
          4.47263770e+03, 5.61466309e+03, 5.44305762e+03, 5.19586328e+03,
          4.38180762e+03, 4.75883350e+03, 5.78550098e+03, 3.94949536e+03,
          4.16986621e+03, 3.52812964e+03, 5.48027344e+03, 3.84517920e+03,
          4.96951855e+03, 4.70660352e+03, 6.29747070e+03, 5.50806250e+03,
          5.23626172e+03, 3.31435693e+03, 6.49087793e+03, 4.46811426e+03,
          1.25534521e+04, 6.14578125e+03, 4.69144189e+03, 3.41771021e+03,
          7.30494385e+03, 7.27503369e+03, 5.69011230e+03, 4.97508057e+03,
          5.52247070e+03, 7.52241553e+03, 4.99525977e+03, 6.03914209e+03,
          7.18574316e+03, 7.85312500e+03, 6.56742090e+03, 8.65198633e+03,
          8.67736914e+03, 1.01498047e+04, 9.82076953e+03, 1.05288232e+04,
          1.21057949e+04, 1.09147031e+04, 1.42681699e+04, 1.56550498e+04,
          1.31181748e+04, 1.32294170e+04, 1.14065752e+04, 1.34369951e+04,
          1.77682305e+04, 1.30250488e+04, 1.20889912e+04, 7.04288184e+03,
          5.11082188e+04, 3.66409922e+04, 4.13180312e+04, 3.72606484e+04,
          2.95254609e+04, 3.27325605e+04, 2.81190332e+04, 2.62147949e+04,
          2.71134570e+04, 2.60479961e+04, 2.57392734e+04, 1.84799785e+04,
          1.78845254e+04, 1.59761387e+04, 1.98760371e+04, 1.85903320e+04,
          1.55605254e+04, 1.49111807e+04, 1.69818906e+04, 9.16145215e+03,
          1.12175166e+04, 1.16853271e+04, 1.29865977e+04, 1.09715947e+04,
          7.72917041e+03, 1.02148252e+04, 8.93857812e+03, 9.28698047e+03,
          8.43538574e+03, 8.94669727e+03, 5.77252930e+03, 1.49432275e+04,
          4.18658301e+03, 7.24754834e+03, 8.59064062e+03, 7.59917041e+03,
          7.23882227e+03, 1.01373770e+04, 7.56872021e+03, 9.38493652e+03,
          1.10640674e+04, 9.59514160e+03, 1.01017646e+04, 1.12088047e+04,
          1.14060049e+04, 1.60499980e+04, 1.35344307e+04, 1.43975664e+04,
          1.86133926e+04, 1.47857852e+04, 1.93668164e+04, 1.70557695e+04,
          1.64234238e+04, 1.79627031e+04, 1.81644180e+04, 1.66235352e+04,
          1.08742500e+04, 1.32864463e+04, 1.50180908e+04, 9.60201367e+03,
          8.51264258e+03, 1.13821582e+04, 8.55790723e+03, 5.08777881e+03,
          2.21408594e+04, 5.92388184e+03, 8.05151904e+03, 8.15645947e+03,
          8.08468066e+03, 7.69310059e+03, 8.26901270e+03, 4.99215527e+03,
          8.38802441e+03, 7.45675000e+03, 4.43439600e+03, 7.11002100e+03,
          4.56701758e+03, 8.14776807e+03, 6.57887305e+03, 5.53772803e+03,
          5.43357764e+03, 5.29103467e+03, 8.02793652e+03, 4.23389111e+03,
          5.59359912e+03, 3.74047144e+03, 5.78954004e+03, 6.43979443e+03,
          4.52447021e+03, 5.39658740e+03, 7.02934961e+03, 4.27302539e+03,
          5.97276660e+03, 4.16566455e+03, 3.56924927e+03, 2.38038599e+03,
          1.28329062e+04, 3.20134131e+03, 4.38110742e+03, 5.65340576e+03,
          4.85898926e+03, 6.47937842e+03, 4.77541455e+03, 5.53952441e+03,
          7.27994385e+03, 7.25354834e+03, 5.41493945e+03, 7.08698340e+03,
          7.26993164e+03, 1.13858535e+04, 9.29430566e+03, 7.80894727e+03,
          7.44876025e+03, 9.40536816e+03, 9.59160254e+03, 6.56914209e+03,
          1.07564932e+04, 1.00272646e+04, 1.01954053e+04, 1.15312393e+04,
          1.27803525e+04, 1.23698467e+04, 1.41246875e+04, 1.80132168e+04,
          1.67168359e+04, 2.52876172e+04, 2.49559316e+04, 1.76278867e+04,
          4.03280664e+04, 3.38327773e+04, 3.13650391e+04, 2.81055762e+04,
          4.35873672e+04, 4.49407891e+04, 4.81456055e+04, 5.32574766e+04,
          4.20099531e+04, 5.31384922e+04, 4.41637422e+04, 3.97765312e+04,
          3.01780527e+04, 3.28126445e+04, 2.93947598e+04, 2.30705645e+04,
          2.65459688e+04, 2.58953574e+04, 2.43342480e+04, 1.84827637e+04,
          1.63047285e+04, 1.59831230e+04, 1.71493711e+04, 1.44003018e+04,
          1.21677354e+04, 1.42293418e+04, 1.32155303e+04, 1.18723408e+04,
          1.01554902e+04, 1.17735459e+04, 9.20553516e+03, 2.14912070e+04,
          5.26737158e+03, 7.48144434e+03, 9.25549414e+03, 9.75546582e+03,
          9.63989844e+03, 1.09702715e+04, 9.56586133e+03, 9.21603809e+03,
          1.28719463e+04, 1.17276953e+04, 1.02488896e+04, 1.26975215e+04,
          1.22388721e+04, 1.77114004e+04, 1.52984648e+04, 1.59331064e+04,
          1.66369922e+04, 1.94707031e+04, 2.28203945e+04, 1.46242480e+04,
          1.85392109e+04, 1.84437520e+04, 1.66588281e+04, 1.64300312e+04,
          1.46167227e+04, 1.46724883e+04, 1.56430898e+04, 1.19591064e+04,
          1.23216582e+04, 1.25918857e+04, 8.88616504e+03, 6.64280518e+03,
          2.85030234e+04, 1.10192656e+04, 1.25652041e+04, 1.20096221e+04,
          1.14029346e+04, 8.84774805e+03, 5.54830225e+03, 7.92680566e+03,
          1.01534707e+04, 8.29637598e+03, 6.57698926e+03, 7.65616553e+03,
          6.33640137e+03, 7.36147266e+03, 6.28156689e+03, 7.24634521e+03,
          6.03865332e+03, 5.88311279e+03, 8.69158887e+03, 6.12178564e+03,
          6.51405811e+03, 6.35683496e+03, 1.01696426e+04, 9.89222656e+03,
          5.71020312e+03, 6.38962158e+03, 9.60810156e+03, 7.17871680e+03,
          8.46814355e+03, 6.37273926e+03, 7.41725537e+03, 4.22065869e+03,
          1.69882520e+04, 9.92347070e+03, 9.67125977e+03, 9.75427148e+03,
          9.52654883e+03, 9.84276660e+03, 1.04017891e+04, 1.36130898e+04,
          1.49345752e+04, 1.34138770e+04, 1.11224473e+04, 9.50188477e+03,
          1.14304131e+04, 1.49154688e+04, 1.72113066e+04, 1.44480439e+04,
          1.42856328e+04, 1.08429512e+04, 1.54694629e+04, 1.54501064e+04,
          1.91532637e+04, 1.80925703e+04, 2.17030078e+04, 2.98669062e+04,
          3.60944180e+04, 4.03751797e+04, 4.35848516e+04, 3.97162734e+04,
          3.55768555e+04, 5.56334023e+04, 4.60080547e+04, 3.62931289e+04,
          1.85949258e+04, 6.91111377e+03, 1.34261914e+04, 5.40080664e+03,
          6.12690918e+03, 7.30340576e+03, 5.51497217e+03, 7.90827441e+03,
          5.91163379e+03, 4.97536914e+03, 4.38105518e+03, 4.02605054e+03,
          5.09958740e+03, 3.09541187e+03, 3.68254199e+03, 5.55340234e+03,
          2.20022925e+03, 2.52790723e+03, 2.53632642e+03, 9.45519165e+02,
          1.75984399e+03, 1.29188013e+03, 1.98680249e+03, 2.91766113e+03,
          1.46772632e+03, 1.68426416e+03, 1.30326221e+03, 1.10963660e+03,
          9.43916321e+02, 1.12496912e+03, 1.11937695e+03, 3.33191675e+03,
          2.74416046e+02, 1.11241101e+03, 1.41837268e+03, 2.61717529e+03,
          1.82634241e+03, 2.34475391e+03, 1.94492590e+03, 2.82600635e+03,
          2.55095068e+03, 2.52015137e+03, 8.44570679e+02, 2.32376709e+03,
          2.51500342e+03, 3.87443652e+03, 2.53983765e+03, 2.92610962e+03,
          4.12104199e+03, 4.93210254e+03, 4.75879932e+03, 4.58221729e+03,
          4.49909375e+03, 4.65947803e+03, 6.42535498e+03, 8.51315430e+03,
          6.28714795e+03, 5.52050000e+03, 6.89969189e+03, 9.46288477e+03,
          8.53096875e+03, 1.27150117e+04, 1.25057129e+04, 1.01512832e+04,
          5.47278086e+04, 1.56356992e+04, 1.80861582e+04, 2.10258281e+04,
          1.83663320e+04, 1.81190449e+04, 1.47642354e+04, 1.31268740e+04,
          1.23547236e+04, 1.16741465e+04, 9.40965625e+03, 8.41483008e+03,
          5.80188281e+03, 8.59800684e+03, 6.15828223e+03, 7.41628564e+03,
          3.12253491e+03, 3.96911768e+03, 4.25014648e+03, 2.68860840e+03,
          1.84938416e+03, 2.82288574e+03, 3.49303735e+03, 2.99589551e+03,
          2.31395825e+03, 2.29505347e+03, 3.27602808e+03, 2.09669312e+03,
          3.29463745e+03, 3.67395264e+03, 2.49641870e+03, 1.66198035e+03,
          4.34892285e+03, 3.57484937e+03, 3.20110791e+03, 4.54433350e+03,
          2.72126147e+03, 4.02949829e+03, 3.00880713e+03, 3.41156494e+03,
          3.16399976e+03, 3.74106348e+03, 3.06540820e+03, 2.81798657e+03,
          3.86941992e+03, 4.25811182e+03, 3.18850391e+03, 4.26995312e+03,
          3.00183057e+03, 3.88307983e+03, 4.16058838e+03, 3.30494775e+03,
          4.38442773e+03, 2.25762622e+03, 3.32449219e+03, 2.84159839e+03,
          3.18452197e+03, 2.79666772e+03, 5.34149219e+03, 2.63472900e+03,
          3.54499268e+03, 4.06648169e+03, 2.51669556e+03, 1.92829736e+03,
          8.19819824e+03, 2.29567627e+03, 2.90141382e+03, 2.59000610e+03,
          3.28276270e+03, 4.57480908e+03, 4.12358350e+03, 4.82923877e+03,
          6.48132031e+03, 5.63820654e+03, 6.48212891e+03, 6.92241943e+03,
          7.68455176e+03, 1.01908115e+04, 7.28277686e+03, 7.99193066e+03,
          6.73645068e+03, 4.82784912e+03, 7.07276123e+03, 2.68051123e+03,
          3.61797900e+03, 3.02495166e+03, 3.59116553e+03, 3.55062744e+03,
          2.80097266e+03, 3.06764282e+03, 3.36994214e+03, 2.07997949e+03,
          2.02664026e+03, 2.45680078e+03, 2.45277466e+03, 7.03295459e+03,
          3.94634491e+02, 3.03279321e+03, 2.30955688e+03, 2.80477271e+03,
          3.06029395e+03, 4.46621387e+03, 3.64634155e+03, 3.60141089e+03,
          3.80607788e+03, 4.73853906e+03, 3.08260474e+03, 3.91599536e+03,
          3.49278882e+03, 6.55299414e+03, 6.02496191e+03, 6.57495068e+03,
          5.75927979e+03, 6.58784668e+03, 9.02810645e+03, 8.08414404e+03,
          1.07545781e+04, 1.22709180e+04, 1.37712734e+04, 1.67072246e+04,
          1.37060195e+04, 1.85318887e+04, 1.84998750e+04, 1.04241270e+04,
          6.87111084e+03, 6.85335498e+03, 5.09656494e+03, 4.08548926e+03,
          2.11288945e+04, 8.68637305e+03, 8.20396582e+03, 1.13006934e+04,
          8.69642871e+03, 1.18010615e+04, 9.68758594e+03, 9.61667285e+03,
          1.14270488e+04, 6.96203760e+03, 6.45339795e+03, 6.38167188e+03,
          5.37171484e+03, 7.06548682e+03, 6.47828125e+03, 6.93827344e+03,
          5.79284326e+03, 8.29104590e+03, 1.12370195e+04, 6.80707422e+03,
          8.19282227e+03, 1.07131992e+04, 9.12941602e+03, 1.17010371e+04,
          9.15591406e+03, 1.38351787e+04, 6.11616895e+03, 8.32237891e+03,
          6.62688086e+03, 5.70090283e+03, 3.19857202e+03, 4.78485791e+03,
          8.98771875e+03, 2.01945886e+03, 2.79439282e+03, 2.53320361e+03,
          2.88521777e+03, 1.90007532e+03, 2.66495874e+03, 2.10257739e+03,
          2.23285547e+03, 2.13086450e+03, 2.07670044e+03, 2.47824585e+03,
          1.93800793e+03, 3.38335059e+03, 2.33491748e+03, 2.31393164e+03,
          2.16322290e+03, 2.57756885e+03, 2.57870679e+03, 2.02102368e+03,
          2.37161279e+03, 2.71725098e+03, 2.93241309e+03, 3.23818896e+03,
          2.47412842e+03, 4.58564502e+03, 5.65014600e+03, 9.01056738e+03,
          1.01581162e+04, 1.08232725e+04, 1.86031074e+04, 6.58395947e+03,
          2.14137344e+04, 1.13712324e+04, 1.05703389e+04, 1.10530166e+04,
          9.27096387e+03, 1.01388730e+04, 1.10934424e+04, 6.77664746e+03,
          1.38257471e+04, 1.16137158e+04, 1.07318223e+04, 9.75622168e+03,
          7.85622559e+03, 9.85094922e+03, 7.33469727e+03, 6.04933936e+03,
          7.46439062e+03, 5.86539990e+03, 8.56682520e+03, 5.40676318e+03,
          5.93497559e+03, 5.80300342e+03, 6.58058447e+03, 7.21079688e+03,
          4.96742480e+03, 5.13974756e+03, 5.42450586e+03, 4.72124756e+03,
          4.82332031e+03, 5.31236426e+03, 4.61920215e+03, 1.22476328e+04,
          2.21079053e+03, 4.96329102e+03, 4.10629248e+03, 4.00141553e+03,
          4.96318701e+03, 5.04161621e+03, 4.21598682e+03, 2.91949731e+03,
          5.25875830e+03, 6.40221094e+03, 4.29114307e+03, 4.80939746e+03,
          5.24736377e+03, 9.20458105e+03, 6.29591064e+03, 6.98854150e+03,
          6.93956445e+03, 7.62482227e+03, 9.16849121e+03, 5.61766357e+03,
          5.45299170e+03, 4.74589697e+03, 6.34761572e+03, 5.69793164e+03,
          4.06331543e+03, 5.04754004e+03, 4.55370850e+03, 4.65152148e+03,
          5.10676953e+03, 5.11918945e+03, 5.86996533e+03, 2.32538477e+03,
          2.00683242e+04, 5.70186963e+03, 5.26752881e+03, 5.58945459e+03,
          4.35640039e+03, 6.83153662e+03, 5.82275635e+03, 4.17416943e+03,
          7.97000488e+03, 6.33547607e+03, 4.85736816e+03, 4.71166309e+03,
          3.41961279e+03, 6.23057129e+03, 3.61726758e+03, 3.66049097e+03,
          3.55506201e+03, 3.86139404e+03, 6.62760938e+03, 2.79152808e+03,
          3.45806226e+03, 2.96454248e+03, 4.79469775e+03, 6.26634717e+03,
          3.62265430e+03, 4.75328809e+03, 3.93725439e+03, 5.25194336e+03,
          4.88321729e+03, 3.88780225e+03, 3.75041699e+03, 1.34656360e+03,
          1.27394834e+04, 3.73627100e+03, 4.49048535e+03, 4.83801172e+03,
          5.45951221e+03, 5.94057422e+03, 5.82680713e+03, 3.91969604e+03,
          6.02729004e+03, 5.85083936e+03, 4.11757959e+03, 6.40821680e+03,
          4.69743506e+03, 8.23372070e+03, 6.68295166e+03, 8.00221143e+03,
          7.15296924e+03, 8.25267871e+03, 1.24972900e+04, 8.27149805e+03,
          1.00567100e+04, 1.06071328e+04, 1.17672686e+04, 1.57896572e+04,
          1.06740088e+04, 1.01934902e+04, 1.63565225e+04, 1.62685215e+04,
          1.68323125e+04, 1.55965615e+04, 1.64406367e+04, 1.48628740e+04,
          3.15927988e+04, 2.01018184e+04, 1.91392285e+04, 1.95090527e+04,
          2.06472090e+04, 2.20179102e+04, 1.96485547e+04, 1.52954531e+04,
          2.05679590e+04, 1.71945352e+04, 1.31085791e+04, 1.26999346e+04,
          1.05807656e+04, 1.49419277e+04, 1.15179844e+04, 9.31986914e+03,
          8.63778516e+03, 7.51386328e+03, 1.03243398e+04, 5.62196387e+03,
          7.46297803e+03, 5.45720215e+03, 7.82193164e+03, 7.91818164e+03,
          4.85422705e+03, 6.62614062e+03, 5.68593555e+03, 4.79871240e+03,
          5.91382910e+03, 5.70446973e+03, 3.97970825e+03, 1.41466182e+04,
          9.90122375e+02, 4.83757080e+03, 4.70653760e+03, 5.37850391e+03,
          6.38409912e+03, 5.96069092e+03, 5.84098535e+03, 5.15654980e+03,
          8.24344824e+03, 8.02598828e+03, 4.83727002e+03, 6.64830029e+03,
          6.30044141e+03, 1.05154756e+04, 9.41249707e+03, 8.33424512e+03,
          9.92653906e+03, 9.26340430e+03, 1.54782520e+04, 7.27133105e+03,
          8.55383691e+03, 8.03882812e+03, 8.13486426e+03, 9.77123730e+03,
          5.68939502e+03, 6.23040234e+03, 7.86792139e+03, 6.00893018e+03,
          5.68565527e+03, 4.53252393e+03, 4.75633057e+03, 2.33436157e+03,
          1.75913047e+04, 4.14200146e+03, 6.02319678e+03, 4.40617627e+03,
          5.59019775e+03, 4.93868994e+03, 4.34917529e+03, 3.19120410e+03,
          5.29318457e+03, 5.40045850e+03, 3.84059717e+03, 4.43702246e+03,
          2.80424390e+03, 6.46021924e+03, 4.02562476e+03, 4.21221191e+03,
          4.43930029e+03, 5.31068750e+03, 5.07925439e+03, 4.49564160e+03,
          4.03269702e+03, 3.49767920e+03, 5.80324707e+03, 5.03102100e+03,
          3.34832056e+03, 3.36244971e+03, 4.25059326e+03, 3.88228345e+03,
          4.07963013e+03, 4.65308594e+03, 4.31517236e+03, 2.33388306e+03,
          1.11272871e+04, 4.56258203e+03, 3.92581421e+03, 6.36113232e+03,
          4.39999121e+03, 5.46171484e+03, 5.19714746e+03, 5.11138525e+03,
          7.05549072e+03, 6.75410303e+03, 5.00872119e+03, 5.85305566e+03,
          3.73214209e+03, 8.91517969e+03, 5.39296631e+03, 5.88449854e+03,
          6.01945703e+03, 5.10839551e+03, 7.69795361e+03, 5.55825684e+03,
          7.16947900e+03, 8.06169873e+03, 7.47437256e+03, 8.88944531e+03,
          5.97758252e+03, 9.96680859e+03, 1.18191104e+04, 8.10588818e+03,
          8.45851172e+03, 1.15293506e+04, 9.32941699e+03, 7.28007666e+03 ]
      - [ 2.81287305e+04, 9.27066602e+03, 1.30002959e+04, 1.66471016e+04,
          1.97219570e+04, 1.25670781e+04, 1.65226328e+04, 1.39619541e+04,
          1.63786396e+04, 1.27328506e+04, 9.27560645e+03, 7.76588281e+03,
          7.22049121e+03, 8.49559473e+03, 5.56664209e+03, 5.94626611e+03,
          6.67209326e+03, 6.74185889e+03, 6.64332812e+03, 5.40615723e+03,
          5.40803320e+03, 2.65271899e+03, 5.26139746e+03, 3.95758154e+03,
          3.89518213e+03, 2.68938086e+03, 2.45089600e+03, 5.36472949e+03,
          4.53408008e+03, 3.78658154e+03, 3.40521411e+03, 4.24133496e+03,
          2.55740112e+03, 2.41127100e+03, 3.25655811e+03, 4.57036133e+03,
          3.44529688e+03, 4.67949756e+03, 2.99006274e+03, 4.12959521e+03,
          2.78124170e+03, 3.51391504e+03, 3.56239526e+03, 2.81217603e+03,
          2.28154980e+03, 4.00113647e+03, 3.72249146e+03, 3.16375732e+03,
          4.06870850e+03, 4.01802759e+03, 2.54070850e+03, 3.20326929e+03,
          3.54248535e+03, 3.28559448e+03, 3.45382935e+03, 4.61379590e+03,
          2.18896069e+03, 3.08911865e+03, 3.91215259e+03, 1.67616125e+03,
          2.95341309e+03, 3.44262036e+03, 2.34979517e+03, 7.63092163e+02,
          4.22623438e+03, 3.44438672e+03, 2.98536865e+03, 4.28526221e+03,
          3.36690161e+03, 2.07614990e+03, 2.80305420e+03, 3.29335571e+03,
          2.63952808e+03, 2.99457251e+03, 2.01154150e+03, 2.49589526e+03,
          3.39935571e+03, 4.40594482e+03, 3.51728589e+03, 3.55522266e+03,
          3.05161963e+03, 3.56840527e+03, 3.76893359e+03, 2.61742896e+03,
          3.85086304e+03, 4.19411816e+03, 3.42650977e+03, 3.81388696e+03,
          4.29764453e+03, 5.39207520e+03, 4.59899170e+03, 6.08916162e+03,
          6.08232129e+03, 7.34083887e+03, 5.76297754e+03, 3.63647583e+03,
          1.24553740e+04, 8.48838281e+03, 7.66762549e+03, 7.12498340e+03,
          9.67456250e+03, 7.69762256e+03, 9.96118359e+03, 7.31218945e+03,
          9.41790918e+03, 1.04881934e+04, 1.11873604e+04, 1.02353389e+04,
          1.29994463e+04, 1.07963535e+04, 9.32872656e+03, 9.51335645e+03,
          7.68963184e+03, 9.25102148e+03, 1.22256406e+04, 7.31168018e+03,
          8.02584375e+03, 7.59167529e+03, 8.58791699e+03, 9.02635938e+03,
          6.58595801e+03, 6.58995605e+03, 8.14533838e+03, 6.51697510e+03,
          8.58071191e+03, 8.52596289e+03, 9.28069727e+03, 5.92183252e+03,
          5.32968047e+04, 9.50142969e+03, 8.42929102e+03, 1.01601309e+04,
          1.01901729e+04, 8.94850977e+03, 1.19459404e+04, 7.78758154e+03,
          1.06008447e+04, 9.64557422e+03, 5.09861523e+03, 6.25994971e+03,
          4.69862891e+03, 7.63100732e+03, 6.72446094e+03, 5.60592627e+03,
          5.90182275e+03, 4.89494824e+03, 7.09576514e+03, 3.80938672e+03,
          3.53811597e+03, 3.11350757e+03, 4.18305469e+03, 5.06394336e+03,
          3.65265967e+03, 2.92396045e+03, 2.40231714e+03, 3.60410815e+03,
          3.70349438e+03, 2.96546802e+03, 3.44890747e+03, 8.81213184e+03,
          2.50634570e+03, 4.29524902e+03, 3.95323975e+03, 3.79142456e+03,
          4.55978857e+03, 4.21696826e+03, 3.79145020e+03, 4.45641699e+03,
          6.25322998e+03, 5.48531104e+03, 4.70841455e+03, 6.58183789e+03,
          2.87372607e+03, 5.53410938e+03, 3.94396069e+03, 7.80405518e+03,
          4.45565967e+03, 5.16869678e+03, 7.82712549e+03, 3.56939258e+03,
          6.67521582e+03, 4.40790771e+03, 8.03464502e+03, 7.41136279e+03,
          7.37662109e+03, 4.41852930e+03, 5.57535059e+03, 5.97670752e+03,
          5.23388281e+03, 6.28374805e+03, 4.60836035e+03, 2.24334644e+03,
          7.22742432e+03, 6.27618701e+03, 3.76498071e+03, 3.63209644e+03,
